tree
version=v4
num_class=1
num_tree_per_iteration=1
label_index=0
max_feature_idx=5
objective=regression
feature_names=Elevation Snow_Depth DOWY Latitude Longitude Snow_Class
feature_infos=[48.768000000000001:3543.6048000000001] [5.0800000000000001:693.41999999999996] [1:366] [32.920000000000002:67.25] [-156.90000000000001:-103.79000000000001] [0.28289427449957516:0.36742557179302021]
tree_sizes=10324 10902 10901 10939 10939 10925 10915 10926 10945 10902 10932 10950 10951 10930 10930 10952 10948 10952 10968 10917 10960 10959 10978 10953 10995 10959 10985 10994 10968 10944 10971 10971 10974 10991 10996 10984 10987 10967 11022 10997 10920 10956 10991 11016 10951 10996 11019 10996 10995 10990 11028 10995 10980 10979 10914 11005 10984 10948 10958 10934 10999 10968 10995 10994 11006 11025 11003 11008 10983 11025 10939 10961 11042 10962 11018 10996 10978 11010 10916 11014 11000 10956 10975 10997 11000 10956 11030 11046 10970 11116 11029 10973 11016 10984 11014 10986 10946 11023 11072 10966 10968 11054 11010 10993 10930 11024 11026 11008 11040 10999 10975 11060 11013 11045 10995 11004 11025 11051 10966 10980 10982 10971 11089 10967 10971 10991 11014 11049 11062 11006 10955 11012 10992 11067 11095 11072 11001 11071 11077 11056 11043 10990 10977 11037 11043 10995 11096 11077 11043 11046

Tree=0
num_leaves=112
num_cat=0
split_feature=2 5 2 1 2 2 5 5 4 5 1 1 2 3 2 1 4 1 1 1 2 5 3 4 4 3 3 3 3 2 2 2 1 1 1 4 4 4 3 1 2 3 3 4 1 1 1 1 0 1 2 4 1 1 4 3 0 3 3 4 3 2 3 4 1 2 3 2 1 2 2 4 3 1 4 4 2 3 0 0 3 3 3 4 3 4 3 3 1 3 4 4 3 4 1 2 2 3 1 1 3 3 4 2 1 0 1 1 3 4 2
split_gain=6674.31 879.343 759.563 477.595 589.817 220.308 193.334 190.217 137.288 121.692 109.596 94.3898 70.1735 66.5516 63.9821 63.3781 57.0788 55.4065 46.316 44.7097 39.0003 38.5925 30.9188 29.3278 28.208 28.0965 25.7915 23.4973 23.0379 22.3513 21.6247 19.53 19.2321 18.3182 17.9498 21.2124 17.7357 17.2275 21.5402 16.5251 16.2586 15.6555 14.3599 14.1984 14.1165 14.0537 14.0029 13.8745 13.7777 13.5834 13.4057 12.5774 12.5519 11.9989 11.9767 11.8007 12.4498 11.7149 11.5891 11.3029 10.8636 10.5747 9.63408 10.0047 9.19592 9.13463 9.11589 9.07669 8.8593 8.61669 8.34468 8.15229 8.04691 7.90033 7.86704 7.8283 7.69134 7.65598 7.49241 7.24212 7.13201 7.09044 6.61362 9.76221 6.48348 7.77222 6.43144 7.08994 6.42203 6.33301 6.06547 9.33359 6.71228 5.96173 5.87384 5.82847 5.81301 5.66051 5.61372 5.45447 5.29442 5.19814 5.14457 5.13937 5.11703 5.07116 5.03505 5.0347 4.92234 7.50619 4.80726
threshold=165.50000000000003 0.32139803756390589 200.50000000000003 13.970000000000001 107.50000000000001 103.50000000000001 0.32139803756390589 0.32139803756390589 -111.47999999999998 0.29052868354417694 13.970000000000001 8.8900000000000023 182.50000000000003 61.270000000000003 216.50000000000003 118.11000000000001 -115.59499999999998 19.050000000000004 85.090000000000018 140.97000000000003 300.50000000000006 0.29052868354417694 61.675000000000004 -113.52499999999999 -111.47999999999998 58.770000000000003 44.230000000000011 37.680000000000007 58.770000000000003 132.50000000000003 186.50000000000003 64.500000000000014 11.430000000000001 8.8900000000000023 13.970000000000001 -121.38499999999998 -111.12499999999999 -115.08999999999999 60.670000000000009 166.37000000000003 152.50000000000003 58.770000000000003 48.975000000000001 -106.27 87.63000000000001 36.830000000000005 6.3500000000000005 87.63000000000001 935.73600000000022 41.910000000000004 126.50000000000001 -117.65999999999998 163.83000000000001 36.830000000000005 -121.38499999999998 47.055000000000007 1949.9580000000003 42.995000000000012 45.415000000000006 -115.59499999999998 61.675000000000004 149.50000000000003 42.995000000000012 -109.48499999999999 24.130000000000003 185.50000000000003 48.975000000000001 65.500000000000014 158.75000000000003 153.50000000000003 94.500000000000014 -115.59499999999998 37.910000000000004 87.63000000000001 -122.30999999999999 -109.22999999999998 215.50000000000003 41.980000000000011 2855.0616000000005 979.93200000000013 61.270000000000003 42.090000000000011 42.995000000000012 -109.76499999999999 42.995000000000012 -109.48499999999999 43.605000000000011 40.355000000000011 46.990000000000002 37.910000000000004 -111.97499999999998 -107.58999999999999 44.585000000000008 -121.81999999999998 16.510000000000005 156.50000000000003 94.500000000000014 43.605000000000011 49.530000000000008 151.13000000000002 45.310000000000009 37.910000000000004 -111.97499999999998 44.500000000000007 209.55000000000004 2750.3628000000003 214.63000000000002 24.130000000000003 45.885000000000012 -117.89999999999999 100.50000000000001
decision_type=2 2 2 2 2 2 2 2 2 2 2 2 2 2 2 2 2 2 2 2 2 2 2 2 2 2 2 2 2 2 2 2 2 2 2 2 2 2 2 2 2 2 2 2 2 2 2 2 2 2 2 2 2 2 2 2 2 2 2 2 2 2 2 2 2 2 2 2 2 2 2 2 2 2 2 2 2 2 2 2 2 2 2 2 2 2 2 2 2 2 2 2 2 2 2 2 2 2 2 2 2 2 2 2 2 2 2 2 2 2 2
left_child=1 3 7 11 17 10 14 9 13 22 33 46 24 16 21 27 29 94 37 40 23 60 30 44 42 65 43 61 34 107 52 64 -13 -3 -7 58 48 38 67 59 86 76 49 73 80 -26 -1 69 -14 -11 -37 -50 101 -31 74 90 -57 88 -36 93 72 -10 105 -64 -12 -9 95 -19 -17 -29 -20 -51 -4 82 -33 -59 -8 -69 -75 -60 81 -16 -25 -84 -47 -86 87 -18 -38 -32 -28 92 -92 -23 -5 -55 -39 -42 -63 -78 -76 -2 -73 -66 -91 -61 -21 -6 109 -46 -34
right_child=2 5 6 4 8 28 41 25 15 12 31 32 36 -15 20 68 19 18 70 106 -22 39 -24 26 45 -27 55 47 -30 53 89 54 110 -35 35 50 57 96 -40 -41 97 -43 -44 -45 108 84 -48 -49 51 71 -52 -53 -54 66 -56 56 -58 75 79 62 -62 98 63 -65 103 -67 -68 77 -70 -71 -72 102 -74 78 100 -77 99 -79 -80 -81 -82 -83 83 -85 85 -87 -88 -89 -90 104 91 -93 -94 -95 -96 -97 -98 -99 -100 -101 -102 -103 -104 -105 -106 -107 -108 -109 -110 -111 -112
leaf_value=0.31095611871463347 0.30348001013623083 0.3079345234532998 0.30577560946771098 0.30207643277189017 0.3038838078397213 0.30619061417206872 0.30704331900102749 0.30542410171444134 0.30163421711911864 0.30532732838134624 0.30232350058385637 0.3047365278130586 0.30247271444172796 0.30045388219683633 0.30532804907724265 0.30189028804880447 0.30158419145371146 0.3006030697496142 0.30094204749856762 0.30271459436041537 0.30078797540365443 0.30417287647045033 0.30091439662507957 0.30613169031222542 0.30474024698622537 0.30338698207407599 0.30420936360256196 0.30078078601162261 0.30263583374899472 0.30453044430610948 0.30479857267168398 0.30190841950475672 0.30310485747173854 0.30478537740526751 0.30405560659482789 0.30305547759529544 0.30530175595172548 0.30039713591798506 0.29997311343827748 0.30634306717497728 0.30287364325105798 0.30563928630223663 0.30180268960991996 0.30536111937611016 0.30764584887030194 0.3032632804166967 0.30704292840316372 0.30140858219340705 0.3055460785691303 0.30434246241049101 0.30407492781671619 0.30471578661256987 0.30332706411321692 0.30304030544851823 0.30183549731239123 0.30421203669704616 0.30776882513562975 0.30398472590419451 0.30389087251752428 0.30564983092580184 0.30248174081401008 0.30409546229565559 0.30490523478494863 0.30337196902381419 0.30021538604739395 0.30615843757713995 0.30179430735826124 0.30077392363451294 0.30243448584148019 0.30151286602868871 0.30141588900185856 0.30353474864756869 0.30435855569138576 0.30717407577256617 0.30239970578895103 0.30258955611593308 0.30745873485275527 0.3014274459293883 0.30618993119052867 0.30496005359037653 0.30429845855603788 0.30645344327321694 0.30609290033543302 0.30381975945656264 0.30300810015566176 0.30159534442184782 0.30143669979820853 0.30221125316490993 0.30425678233807762 0.30335355524875962 0.30659820524156395 0.30405357487998053 0.30519183886894241 0.30603086384412354 0.30140793282772549 0.3036469803277031 0.30070074754123266 0.30201964425515093 0.30237789630637912 0.30819867992752514 0.30310543944495433 0.30227934679246427 0.30423532708846418 0.30135428221208554 0.3043947674963815 0.30500260809188706 0.30341687055418309 0.30242144785462344 0.30746246445894404 0.30624167525642737 0.30467228591562567
leaf_weight=780 3011 1879 3343 18622 1845 3425 19061 31469 24070 6178 6469 11675 1809 13224 5491 58569 28301 27036 61575 32212 1106 1421 5325 26964 4096 4202 6650 81810 7303 4936 3169 9267 14284 5448 28109 15973 5527 297700 17791 12672 13095 3750 2130 19124 4124 34027 6115 65537 17722 27666 25065 62355 16490 44383 22807 1089 2353 8139 5658 20357 2158 1915 18000 3920 3794 21617 3679 20384 36868 14285 51730 28801 32501 10161 13672 4856 19724 40499 13804 31322 1598 18526 3303 2519 9079 4359 42997 26323 22804 24779 3001 4837 17769 16233 21329 16404 56812 10638 5792 12205 19514 28901 10940 14275 4171 16651 10155 50901 10254 9551 1651
leaf_count=780 3011 1879 3343 18622 1845 3425 19061 31469 24070 6178 6469 11675 1809 13224 5491 58569 28301 27036 61575 32212 1106 1421 5325 26964 4096 4202 6650 81810 7303 4936 3169 9267 14284 5448 28109 15973 5527 297700 17791 12672 13095 3750 2130 19124 4124 34027 6115 65537 17722 27666 25065 62355 16490 44383 22807 1089 2353 8139 5658 20357 2158 1915 18000 3920 3794 21617 3679 20384 36868 14285 51730 28801 32501 10161 13672 4856 19724 40499 13804 31322 1598 18526 3303 2519 9079 4359 42997 26323 22804 24779 3001 4837 17769 16233 21329 16404 56812 10638 5792 12205 19514 28901 10940 14275 4171 16651 10155 50901 10254 9551 1651
internal_value=0.302783 0.301699 0.304912 0.301417 0.301326 0.303327 0.305856 0.304087 0.301948 0.303837 0.302359 0.304607 0.304144 0.302361 0.305572 0.301521 0.302449 0.300729 0.30066 0.302114 0.305934 0.305111 0.302944 0.30597 0.303691 0.305552 0.305722 0.301234 0.304131 0.302899 0.303078 0.302095 0.303889 0.305593 0.304231 0.304168 0.304612 0.300538 0.300846 0.305423 0.301845 0.307354 0.304029 0.306009 0.306527 0.303195 0.307486 0.3011 0.304846 0.304093 0.303678 0.3049 0.302711 0.303224 0.302344 0.305113 0.306644 0.304147 0.304477 0.305271 0.304377 0.301918 0.305088 0.304631 0.301434 0.305723 0.303124 0.301022 0.302101 0.30089 0.301158 0.30398 0.304491 0.306228 0.302617 0.303463 0.307481 0.301209 0.306607 0.304796 0.306078 0.306196 0.30595 0.305109 0.303061 0.30255 0.301688 0.301886 0.304461 0.303631 0.304949 0.305142 0.305395 0.305881 0.30172 0.303204 0.300446 0.302491 0.302805 0.307742 0.302815 0.302393 0.303728 0.301115 0.303504 0.305359 0.302883 0.302473 0.307007 0.306665 0.303267
internal_weight=2.18774e+06 1.4499e+06 737842 1.23592e+06 1.20142e+06 213980 344220 393622 587939 336334 97125 34505 250488 299093 289480 288846 285869 613478 573527 163721 162224 127256 85846 161118 127276 57288 111574 193409 116855 122148 80521 89798 27610 7327 109552 106127 123212 460222 105710 89254 121354 54740 75715 75875 49544 51561 6895 161632 81886 73585 41038 80077 48402 69402 65260 35699 3442 41326 65089 76582 38002 31777 58928 21920 24538 53086 64466 87919 95437 96095 113305 67407 35844 56751 42453 12995 50990 60883 23965 36980 25615 24017 32786 5822 47465 13438 97621 54624 28331 32119 32257 25607 20770 17654 39951 60787 354512 23733 7707 31929 33186 31912 39741 18069 28950 37008 42367 52746 23929 13675 15935
internal_count=2187744 1449902 737842 1235922 1201417 213980 344220 393622 587939 336334 97125 34505 250488 299093 289480 288846 285869 613478 573527 163721 162224 127256 85846 161118 127276 57288 111574 193409 116855 122148 80521 89798 27610 7327 109552 106127 123212 460222 105710 89254 121354 54740 75715 75875 49544 51561 6895 161632 81886 73585 41038 80077 48402 69402 65260 35699 3442 41326 65089 76582 38002 31777 58928 21920 24538 53086 64466 87919 95437 96095 113305 67407 35844 56751 42453 12995 50990 60883 23965 36980 25615 24017 32786 5822 47465 13438 97621 54624 28331 32119 32257 25607 20770 17654 39951 60787 354512 23733 7707 31929 33186 31912 39741 18069 28950 37008 42367 52746 23929 13675 15935
is_linear=0
shrinkage=1


Tree=1
num_leaves=112
num_cat=0
split_feature=2 5 2 2 1 2 5 5 4 4 1 1 2 3 1 4 3 2 1 2 1 2 5 3 4 3 4 3 5 3 1 1 2 2 1 2 1 1 2 1 4 1 1 4 4 3 1 4 1 1 2 2 2 1 4 3 4 3 0 1 3 4 4 3 3 1 3 4 4 0 2 1 1 3 3 4 1 0 3 0 2 2 1 3 3 4 1 3 0 3 0 4 4 3 0 1 1 5 4 3 3 0 3 1 0 1 1 3 2 1 4
split_gain=6313.64 844.105 659.792 475.082 523.648 216.438 177.247 175.834 124.286 115.94 104.659 86.8958 73.5126 63.6893 57.5961 56.249 55.1135 54.2489 48.1965 47.0601 39.0091 36.8848 33.3824 28.8764 27.7368 26.5144 26.2605 24.3924 23.9601 23.0726 22.1573 20.9697 21.8207 19.859 19.7659 19.5024 17.8328 17.7024 17.5093 17.4841 16.3775 16.229 14.8978 14.4899 14.3753 14.3553 13.8939 13.4282 13.3983 12.8894 12.7642 12.4866 12.2555 11.5968 11.5947 11.4045 12.2374 11.1606 11.7744 10.6426 10.3714 9.84009 9.61149 10.8104 9.36741 8.68301 8.38994 8.68421 8.11702 7.87435 7.81317 7.60483 7.4717 7.38978 7.31217 8.21923 7.24758 7.17159 7.1414 7.08591 7.05885 7.03582 6.27977 6.26048 6.25478 9.23261 6.24869 6.22602 5.91712 5.77468 6.9649 5.73641 8.82724 6.34812 5.62332 5.52389 5.49403 5.42757 5.21946 5.18369 7.34165 5.09976 7.15346 7.17989 5.02372 4.86667 4.85293 4.85163 4.74499 4.69257 4.65306
threshold=167.50000000000003 0.32139803756390589 201.50000000000003 116.50000000000001 13.970000000000001 104.50000000000001 0.32139803756390589 0.29052868354417694 -111.47999999999998 -115.59499999999998 11.430000000000001 8.8900000000000023 95.500000000000014 61.090000000000011 19.050000000000004 -116.25999999999998 58.770000000000003 216.50000000000003 128.27000000000001 185.50000000000003 140.97000000000003 300.50000000000006 0.29052868354417694 61.675000000000004 -113.52499999999999 37.680000000000007 -115.08999999999999 44.230000000000011 0.33877400423210474 58.770000000000003 24.130000000000003 16.510000000000005 64.500000000000014 187.50000000000003 87.63000000000001 155.50000000000003 31.750000000000004 39.370000000000012 154.50000000000003 11.430000000000001 -121.38499999999998 82.550000000000026 161.29000000000005 -111.07999999999998 -122.30999999999999 61.090000000000011 13.970000000000001 -106.27 74.930000000000021 6.3500000000000005 126.50000000000001 185.50000000000003 154.50000000000003 95.250000000000014 -121.38499999999998 42.995000000000012 -109.48499999999999 47.055000000000007 1949.9580000000003 171.45000000000002 45.415000000000006 -115.59499999999998 -111.47999999999998 61.090000000000011 61.675000000000004 26.670000000000005 42.995000000000012 -109.48499999999999 -115.59499999999998 861.06000000000017 153.50000000000003 44.45000000000001 87.63000000000001 47.755000000000003 42.195000000000007 -109.48499999999999 8.8900000000000023 2750.3628000000003 37.735000000000007 2855.0616000000005 155.50000000000003 186.50000000000003 44.45000000000001 45.310000000000009 42.995000000000012 -109.76499999999999 179.07000000000002 37.910000000000004 979.93200000000013 61.090000000000011 2156.4600000000005 -111.97499999999998 -107.58999999999999 44.585000000000008 545.5920000000001 16.510000000000005 214.63000000000002 0.29052868354417694 -145.58499999999998 45.885000000000012 39.105000000000011 2970.7332000000006 43.605000000000011 158.75000000000003 935.73600000000022 212.09000000000003 16.510000000000005 37.910000000000004 45.500000000000007 24.130000000000003 -120.63499999999998
decision_type=2 2 2 2 2 2 2 2 2 2 2 2 2 2 2 2 2 2 2 2 2 2 2 2 2 2 2 2 2 2 2 2 2 2 2 2 2 2 2 2 2 2 2 2 2 2 2 2 2 2 2 2 2 2 2 2 2 2 2 2 2 2 2 2 2 2 2 2 2 2 2 2 2 2 2 2 2 2 2 2 2 2 2 2 2 2 2 2 2 2 2 2 2 2 2 2 2 2 2 2 2 2 2 2 2 2 2 2 2 2 2
left_child=1 3 7 4 11 10 17 23 13 16 76 49 14 15 95 30 28 22 25 37 35 24 64 33 48 36 45 47 51 40 -5 -12 108 59 -28 65 -10 -11 53 -13 60 62 61 101 -8 -14 -42 72 89 -1 -48 71 94 106 69 77 86 91 -59 107 109 104 63 68 78 -17 -63 -68 -16 -34 -38 -9 84 -46 -45 -76 -3 -21 -4 -74 -20 -30 -37 -71 -26 -86 -57 -35 -62 90 -19 -29 93 -93 -32 -6 -22 -64 -15 100 -50 102 -39 -104 -24 -89 -27 -2 -33 -7 -96
right_child=2 5 6 8 12 29 44 9 18 19 31 39 26 98 41 20 -18 21 80 55 96 -23 42 -25 27 38 34 57 81 -31 52 32 54 87 -36 82 70 43 -40 -41 46 -43 -44 74 73 -47 50 -49 99 -51 -52 -53 -54 -55 -56 56 -58 58 -60 -61 88 66 97 -65 -66 -67 67 -69 -70 83 -72 -73 79 -75 75 -77 -78 -79 -80 -81 -82 -83 -84 -85 85 -87 -88 105 -90 -91 -92 92 -94 -95 110 -97 -98 -99 -100 -101 -102 -103 103 -105 -106 -107 -108 -109 -110 -111 -112
leaf_value=0.007948533147220679 0.0007527606965101744 0.0050118433473325136 0.0031164940552932461 0.002523706489160935 -0.00071434152264791741 0.0027115336654214318 0.0033466446142955009 0.0028129429502207204 0.0013430576806321675 0.0020186588777354997 0.00091701291785285929 0.0018071414513119225 -0.00082599658753761975 -0.0017344391977804181 -0.0017896388711069278 0.00093158567117288438 6.1437767309874399e-05 0.0037182510996784626 -0.00067806878463664102 0.002237059241383477 4.0962822032575478e-05 -0.0019399617531449755 0.0012453096284347203 -0.0017682738859090153 0.0032567969383803246 0.00094309143376228625 -0.0019152706761860121 0.0013873357162796382 0.0026804494993400325 -0.00013793430413668178 -0.0019009302617778868 -0.0020993896960477569 -0.0010904861152565427 0.002037717619344361 -0.0012785198116279299 0.0015073842129538237 -0.0010945343768746115 0.0013576877166156104 -0.00094090128303900191 0.00035561538242120271 0.0031462982219360048 -0.0017956072243759959 0.0034626849677445444 0.00058230746174898541 0.0045056512589018846 -0.0023264912489245259 0.00028657127186830478 0.0025074172781935538 0.0050328087084238176 0.0041019471085445725 0.0012863233186837285 0.0025866681193439205 0.00091834191218083774 -0.001294420409508913 -0.00094756392253284938 0.0012949549514844781 -4.4649050405883859e-05 0.001389935336430913 0.0048489093842957343 0.00062495880622206524 0.0012295835972684068 0.0025234405195366412 -0.0022163158694594497 -0.0028765352985965402 -0.00023876266592167067 -0.00093329000415640854 0.0020834232985277434 0.00060172953260631155 -0.0021885559860044999 -0.00044088375081270935 -2.7720047625900656e-06 0.0016533609291950811 0.0042705160233913898 0.0054917854945303836 0.0003238694496148722 -0.0010718758518660789 0.0027673037702547875 0.0015779943263312119 0.0015820317831170831 0.0033134362282760737 -8.6952560335659318e-05 0.0033824374069310824 -0.00015194329599515252 0.00028674786666584262 0.003219073691560344 0.0010084459758301443 0.0023644457583037776 0.0006108458723144899 0.0021635731095428069 0.0016634028571467935 0.002687956697472558 0.0037104823558453829 0.001235831326805004 0.0023427921540693235 0.00067878135140771666 -0.0013764931873738316 0.00070893318167285745 -0.0025005830083207671 -0.0029165783625987453 0.0044896352323206736 0.00345820791117093 -4.1657339790351222e-05 0.00030863046349491856 0.0014174406679826703 0.0031654831002211658 0.0016491035321769714 -0.0018748908200505439 -0.00039543561406759313 -0.0011964627045885769 0.0012370194633015371 5.5463280701279312e-05
leaf_weight=746 3077 1904 2477 3655 17886 1736 7431 4962 3230 8534 6511 10868 50807 9527 61183 1928 7553 11415 51274 29722 36087 1106 1107 5168 26964 465 93122 6650 24814 7421 1006 5956 6118 3165 61041 1865 19827 28933 34642 14855 2230 70965 12634 26289 39074 5328 15294 19124 2696 5651 26214 28113 20345 44573 22624 19820 4466 1089 2353 13889 6111 33961 90455 12611 2007 91235 16558 3652 104458 15626 6611 31042 10161 6742 8441 5130 2541 21541 31095 13804 21765 19128 22964 20909 3303 2519 5221 24960 32008 1847 8784 3001 4837 17769 11151 20398 12552 115953 4017 11547 13255 3259 13201 6638 15006 3956 72808 29135 16882 27428 48252
leaf_count=746 3077 1904 2477 3655 17886 1736 7431 4962 3230 8534 6511 10868 50807 9527 61183 1928 7553 11415 51274 29722 36087 1106 1107 5168 26964 465 93122 6650 24814 7421 1006 5956 6118 3165 61041 1865 19827 28933 34642 14855 2230 70965 12634 26289 39074 5328 15294 19124 2696 5651 26214 28113 20345 44573 22624 19820 4466 1089 2353 13889 6111 33961 90455 12611 2007 91235 16558 3652 104458 15626 6611 31042 10161 6742 8441 5130 2541 21541 31095 13804 21765 19128 22964 20909 3303 2519 5221 24960 32008 1847 8784 3001 4837 17769 11151 20398 12552 115953 4017 11547 13255 3259 13201 6638 15006 3956 72808 29135 16882 27428 48252
internal_value=0 -0.00102844 0.00212223 -0.00130234 -0.00175169 0.000553243 0.00301407 0.00133874 -0.000665771 0.00165216 -0.000395278 0.00168223 -0.00190832 -0.000248132 -0.00209167 -0.000149025 0.00233261 0.00273814 -0.00109878 0.00121799 -0.000442012 0.00306489 0.00229083 0.000222644 0.00309925 -0.00133809 -0.00147771 0.00285879 0.00249136 0.00134664 0.000429354 -0.000589008 -0.000700294 0.000354252 -0.00166315 -0.000712169 -0.00058587 0.000820521 -0.00148444 0.000968898 0.00144587 -0.00217775 0.00259319 0.000709246 0.00446878 -0.00096842 0.00103158 0.00313771 0.00364075 0.00455057 0.000917963 0.00215233 0.000334558 -0.00164422 -0.00044431 0.00171219 0.00128144 0.00226595 0.00375462 -1.13693e-05 0.00171518 0.00243689 -0.00224825 -0.00210031 0.00158615 -0.000894693 0.0022594 0.00181569 -0.00204121 -0.000177367 -0.000821543 0.00181318 0.0033501 0.00465077 0.000314685 -0.000203717 0.00372881 0.00196012 0.00169526 0.00371924 -0.000501925 0.00298603 -2.72932e-05 -2.44518e-05 0.00308027 0.00226265 0.00151795 0.000879665 0.00201385 0.00313561 0.00327022 0.0021071 0.002294 0.00254042 0.000137943 -0.00106715 0.000213348 -0.00237601 -0.00208507 0.00404573 0.00372436 0.00101151 0.00108189 0.000679646 0.00303358 0.0007529 -0.001857 -0.000285747 -0.00143195 0.0013248 0.000172476
internal_weight=2.18774e+06 1.47362e+06 714125 1.25611e+06 736327 217513 333968 380157 519779 296807 99071 32120 704207 264584 493909 251040 115612 280721 255195 181195 166631 162224 118497 83350 161118 182156 210298 111574 108059 118442 84409 94626 88115 78182 154163 117992 29668 100425 152488 25723 111021 455625 82918 91891 53247 56135 43738 75875 49544 6397 41508 64117 80754 117846 65277 80770 29507 35699 3442 46101 67283 70284 384660 178252 35579 93163 54171 20210 165641 42653 26438 36004 56751 45816 39860 13571 4445 51263 33572 23965 73039 43942 24829 36535 32786 5822 25041 32081 38119 22046 20199 32257 25607 20770 60409 38284 48639 206408 13544 27498 15951 52031 48772 19839 16113 28916 73273 32212 22838 29164 59403
internal_count=2187744 1473619 714125 1256106 736327 217513 333968 380157 519779 296807 99071 32120 704207 264584 493909 251040 115612 280721 255195 181195 166631 162224 118497 83350 161118 182156 210298 111574 108059 118442 84409 94626 88115 78182 154163 117992 29668 100425 152488 25723 111021 455625 82918 91891 53247 56135 43738 75875 49544 6397 41508 64117 80754 117846 65277 80770 29507 35699 3442 46101 67283 70284 384660 178252 35579 93163 54171 20210 165641 42653 26438 36004 56751 45816 39860 13571 4445 51263 33572 23965 73039 43942 24829 36535 32786 5822 25041 32081 38119 22046 20199 32257 25607 20770 60409 38284 48639 206408 13544 27498 15951 52031 48772 19839 16113 28916 73273 32212 22838 29164 59403
is_linear=0
shrinkage=0.0275008


Tree=2
num_leaves=112
num_cat=0
split_feature=2 5 2 1 2 2 5 5 4 5 1 1 2 3 2 1 4 1 1 1 2 5 3 4 4 3 3 1 3 2 1 2 3 4 2 1 4 4 4 4 3 3 1 2 3 1 1 1 1 0 1 2 3 4 1 3 0 1 3 3 4 4 3 3 3 2 1 2 3 4 2 3 4 2 3 4 0 3 3 1 1 0 4 0 3 4 1 1 3 2 1 3 4 4 1 0 1 0 2 4 4 3 1 1 2 0 3 1 1 4 4
split_gain=5973.1 779.765 706.633 430.111 508.246 193.45 177.317 172.961 121.74 111.175 97.252 84.7137 68.086 58.2849 57.2373 57.0511 51.2158 50.2762 40.2546 38.0914 34.6432 33.0864 28.278 27.4021 27.2011 25.5403 23.8529 20.9697 20.9607 20.5 20.3791 19.9944 19.7007 20.4581 17.5711 17.3295 17.3074 16.4056 15.9671 14.7481 18.848 14.2312 14.0095 13.9318 13.8882 13.4023 13.3586 12.8814 12.4923 12.4503 12.1479 11.7442 11.6424 11.426 11.368 11.016 11.1774 10.7241 10.6896 10.5078 10.3383 9.67331 9.66699 9.28875 8.99043 8.87054 8.81525 8.63606 8.11827 8.64991 7.969 7.55831 7.34119 7.23308 7.0769 6.99961 6.90669 6.88939 6.78528 6.76134 6.54124 6.47622 8.04846 6.45647 6.01959 7.37387 6.00297 5.99145 5.66723 5.5635 5.49596 6.91567 5.48679 5.48383 5.26306 5.2598 5.25503 5.17341 4.98243 4.9285 4.86598 4.85647 4.69367 4.66045 4.64495 4.64039 4.61895 4.60023 4.57931 4.53037 4.50439
threshold=164.50000000000003 0.32139803756390589 200.50000000000003 13.970000000000001 106.50000000000001 100.50000000000001 0.32139803756390589 0.32139803756390589 -111.47999999999998 0.29052868354417694 11.430000000000001 8.8900000000000023 182.50000000000003 61.270000000000003 215.50000000000003 115.57000000000001 -115.59499999999998 19.050000000000004 130.81000000000003 85.090000000000018 300.50000000000006 0.29052868354417694 61.675000000000004 -111.47999999999998 -113.52499999999999 58.770000000000003 42.995000000000012 19.050000000000004 37.680000000000007 186.50000000000003 13.970000000000001 131.50000000000003 58.770000000000003 -121.38499999999998 64.500000000000014 11.430000000000001 -109.76499999999999 -106.27 -111.12499999999999 -115.08999999999999 60.670000000000009 58.770000000000003 171.45000000000002 125.50000000000001 48.975000000000001 36.830000000000005 46.990000000000002 90.170000000000016 6.3500000000000005 935.73600000000022 163.83000000000001 132.50000000000003 44.70000000000001 -117.65999999999998 77.470000000000013 47.055000000000007 1949.9580000000003 29.210000000000004 45.415000000000006 42.995000000000012 -119.90499999999999 -115.59499999999998 43.605000000000011 61.675000000000004 48.975000000000001 181.50000000000003 158.75000000000003 149.50000000000003 42.995000000000012 -109.48499999999999 65.500000000000014 61.270000000000003 -115.59499999999998 213.50000000000003 41.980000000000011 -109.22999999999998 2530.1448000000005 37.735000000000007 42.090000000000011 130.81000000000003 8.8900000000000023 2778.8616000000006 -107.69999999999997 979.93200000000013 42.995000000000012 -109.48499999999999 179.07000000000002 46.990000000000002 37.910000000000004 152.50000000000003 158.75000000000003 43.605000000000011 -111.41499999999998 -120.63499999999998 16.510000000000005 2839.2120000000009 46.990000000000002 935.73600000000022 44.500000000000007 -111.97499999999998 -117.145 37.910000000000004 49.530000000000008 194.31000000000003 226.50000000000003 2750.3628000000003 58.770000000000003 29.210000000000004 24.130000000000003 -106.60499999999998 -121.38499999999998
decision_type=2 2 2 2 2 2 2 2 2 2 2 2 2 2 2 2 2 2 2 2 2 2 2 2 2 2 2 2 2 2 2 2 2 2 2 2 2 2 2 2 2 2 2 2 2 2 2 2 2 2 2 2 2 2 2 2 2 2 2 2 2 2 2 2 2 2 2 2 2 2 2 2 2 2 2 2 2 2 2 2 2 2 2 2 2 2 2 2 2 2 2 2 2 2 2 2 2 2 2 2 2 2 2 2 2 2 2 2 2 2 2
left_child=1 3 6 11 17 10 9 14 13 22 80 48 23 16 21 28 31 94 51 39 24 63 29 44 47 65 37 -12 67 50 -7 108 33 58 98 -13 52 81 49 40 70 73 61 -35 46 -25 -11 71 -1 -14 101 -18 92 -51 89 99 -57 -33 -32 87 106 97 76 77 93 -8 -17 -10 105 -70 -19 78 -48 -9 -72 -61 -53 -4 100 -21 -3 -26 -83 -60 109 -86 -20 -40 -31 -30 91 95 -28 -59 -5 -74 -75 -23 -29 -54 -16 -2 -69 -90 -49 -63 110 -76 -6 -47 -36
right_child=2 5 7 4 8 30 25 41 15 12 27 35 38 -15 20 66 18 19 86 79 -22 42 -24 45 26 -27 36 34 54 88 32 57 -34 43 60 -37 -38 -39 59 -41 -42 -43 -44 -45 -46 84 72 104 -50 53 -52 62 55 -55 -56 56 -58 64 83 75 -62 68 -64 -65 -66 -67 -68 102 69 -71 74 -73 90 96 107 -77 -78 -79 -80 -81 -82 82 -84 -85 85 -87 -88 -89 103 -91 -92 -93 -94 -95 -96 -97 -98 -99 -100 -101 -102 -103 -104 -105 -106 -107 -108 -109 -110 -111 -112
leaf_value=0.00773701435741751 0.00063663389251104006 0.0048724919893866729 0.0029763215287835184 -0.00066983836552194156 0.0010153757258726532 0.0032038675390169504 0.0024117253450396817 0.0039755424669657962 -0.0010953322831644735 0.0022828172695043541 0.0005756316848386173 0.0018492344909307326 -0.00030324385675276424 -0.0022132897015849653 0.0032241079885613659 -0.00088166659666544592 -0.0012298910870429246 -0.0020681688744364078 -0.0002625315347384331 -0.0016828022701720811 -0.0018866113713407772 0.0011297675307509129 -0.0017808535095378125 0.0018378380667547882 0.0037787577138465073 0.00056880699325797244 0.0014606134245825121 -0.0022520633460351223 -0.0019722782761561826 0.001906918958013783 0.0011516701325725721 0.0020457994869092339 -0.00021587545171858208 0.00017909299103681817 -0.00017395388089858389 0.00045371315300116161 0.0013175095938796975 0.002416004898126327 0.0023990544160920578 -0.0022151645478702725 -0.0026646886150378311 0.002688814313407787 0.0033838056332714597 0.0011923085103656668 -0.00096749164274296585 0.00063964312254923396 0.0014381895359148425 0.0035553170069444343 0.0040362688220356314 0.0026199456541412605 0.00050927938918024984 -1.6384722469336456e-06 0.0013368712017154027 0.0018285702802448324 -0.001408490282584683 0.00138582443003744 0.0046993730038208392 0.0010497055635216945 0.0010096540476995559 0.0011351176308147068 -0.0016512680758997338 0.0027023758725385617 -0.0010691752256471124 -0.00032203430140924653 -0.00098235812841570907 0.0031120377341402267 -0.00034376272428984046 0.0012188490925350702 0.0019944642308293327 0.00052968383277369633 -0.0019215869555804061 0.0013662261239893358 0.0012201197832295918 0.0038997832722156133 -0.00060541478759737726 -0.00018413916002434173 -0.00082801714457065234 0.0014757536694667377 0.0034760105859923951 -0.001183531445683241 0.0026845440373809786 0.0026992209246900155 0.0035657507867199374 0.0020036874109874876 0.00019124362096097062 -0.0011442095966911017 0.00034993379226727747 0.0013897185517159415 0.00051000105464058746 -0.0012862509108628533 0.0013693049690749646 0.00014634110004475959 0.0034825711635580229 0.00029487817776758477 -0.0013035619337912847 -2.6203380513682727e-05 0.0048233696816706584 0.0030419383392465342 -0.0012461936581405035 0.0022639905490095384 0.0016431366526930391 -0.00049662267387221579 -0.00041490716425560337 0.0013903335607883139 0.0043189930362968953 0.0020696661427794224 -0.0013376007426116909 -0.001415347493774995 -0.00037171207873257044 -1.6215099020215218e-05 -0.00076808975173578865
leaf_weight=778 3157 1810 2500 18576 1866 3805 27065 16731 24327 8040 9396 11661 1809 13209 2868 63413 56647 27036 29897 81542 1106 1148 5479 4285 17430 4318 1124 4822 63818 3169 28987 2830 7387 17334 33311 15916 10818 19834 5527 350342 17547 3750 11165 25164 2256 24284 28574 10838 6103 17722 17188 18261 6205 62355 83600 1130 2418 8403 5833 8139 5754 19534 25413 2044 3796 27671 36196 1781 17235 3705 19964 1758 14851 5567 6304 4856 13163 31172 19671 27416 2411 16643 15814 32390 9619 4633 20335 22804 23298 10400 11719 11723 10516 54446 21255 3094 28692 15865 16377 14415 3028 30371 5251 5652 13580 15916 3845 33466 50842 11852 13588
leaf_count=778 3157 1810 2500 18576 1866 3805 27065 16731 24327 8040 9396 11661 1809 13209 2868 63413 56647 27036 29897 81542 1106 1148 5479 4285 17430 4318 1124 4822 63818 3169 28987 2830 7387 17334 33311 15916 10818 19834 5527 350342 17547 3750 11165 25164 2256 24284 28574 10838 6103 17722 17188 18261 6205 62355 83600 1130 2418 8403 5833 8139 5754 19534 25413 2044 3796 27671 36196 1781 17235 3705 19964 1758 14851 5567 6304 4856 13163 31172 19671 27416 2411 16643 15814 32390 9619 4633 20335 22804 23298 10400 11719 11723 10516 54446 21255 3094 28692 15865 16377 14415 3028 30371 5251 5652 13580 15916 3845 33466 50842 11852 13588
internal_value=1.18547e-10 -0.00103757 0.0019901 -0.00130402 -0.00139163 0.000501533 0.00121223 0.00290647 -0.000816147 0.00097481 -0.000453868 0.00172496 0.00126295 -0.000427292 0.0026384 -0.0012189 -0.000344775 -0.00195228 -0.000662755 -0.00201902 0.00296446 0.00217976 0.00013256 0.000836158 0.00299638 0.00260513 0.00276307 -0.00065145 -0.00149938 0.000259123 0.00122314 8.12927e-05 0.00115877 0.00125133 -0.000799847 0.00104382 0.00228153 0.00308509 0.00173034 -0.00212969 -0.00184264 0.00432409 0.00247618 0.000779047 0.00115962 0.000361321 0.00122115 0.00352099 0.00445474 0.00195275 -8.51604e-05 -0.000949654 0.00257277 0.00200371 -0.00162842 0.00222859 0.00364413 0.000387715 0.00154996 0.00128964 -0.00054651 0.00233812 -0.000670349 0.0014779 0.000317302 0.00276576 -0.000686206 -0.000849965 0.00216469 0.00173531 -0.0016764 0.00311076 0.00109914 0.00444435 -0.00149907 0.000642112 -0.000347804 0.00158717 0.0032307 -0.00155718 0.00362282 0.0033511 0.00312143 0.001852 0.000235752 -0.000242861 -1.45865e-05 0.00158664 0.000802758 -0.00187615 0.000865046 0.000665852 0.00328735 0.000395804 -0.00100802 0.00100522 0.0046733 0.00291293 -0.00147501 0.00198501 0.00241222 -0.000389906 -1.08299e-06 0.000681881 0.00398005 0.00241832 -0.000421233 -0.00128697 -0.0003226 0.000424525 -0.000346098
internal_weight=2.18774e+06 1.43801e+06 749730 1.2258e+06 1.19134e+06 212214 405510 344220 587894 346456 91314 34458 258142 299108 289480 288786 285899 603448 163716 563617 169196 120284 88314 134930 168090 59054 116347 87093 189177 82835 120900 122183 117095 109708 77697 27577 46626 69721 123212 454659 104317 54740 84568 42498 80257 54673 78001 51743 6881 81886 50716 113484 35808 80077 157818 24168 3548 69475 67210 41326 56498 73403 56837 35716 66645 54736 99609 31359 56390 20940 86770 27325 69961 50990 59734 12995 31424 33672 25567 108958 4221 49887 32457 38223 50388 14252 50232 28331 32119 74218 41387 29668 11640 62849 39831 17945 34259 17013 21199 20620 5896 33528 7032 28950 24418 35450 50744 39770 52708 36136 46899
internal_count=2187744 1438014 749730 1225800 1191342 212214 405510 344220 587894 346456 91314 34458 258142 299108 289480 288786 285899 603448 163716 563617 169196 120284 88314 134930 168090 59054 116347 87093 189177 82835 120900 122183 117095 109708 77697 27577 46626 69721 123212 454659 104317 54740 84568 42498 80257 54673 78001 51743 6881 81886 50716 113484 35808 80077 157818 24168 3548 69475 67210 41326 56498 73403 56837 35716 66645 54736 99609 31359 56390 20940 86770 27325 69961 50990 59734 12995 31424 33672 25567 108958 4221 49887 32457 38223 50388 14252 50232 28331 32119 74218 41387 29668 11640 62849 39831 17945 34259 17013 21199 20620 5896 33528 7032 28950 24418 35450 50744 39770 52708 36136 46899
is_linear=0
shrinkage=0.0275008


Tree=3
num_leaves=112
num_cat=0
split_feature=2 5 2 2 1 2 5 5 4 4 1 1 2 3 4 1 3 2 2 1 2 5 1 3 3 4 4 1 3 5 3 1 2 2 1 1 2 2 1 1 1 1 4 4 3 1 1 4 1 4 1 2 2 4 3 0 3 3 4 1 2 4 3 4 3 2 1 3 4 3 3 4 1 3 4 3 1 3 0 3 3 0 3 4 2 0 0 2 3 2 2 0 1 4 4 4 3 1 3 1 0 3 0 1 5 3 2 3 3 2 4
split_gain=5649.67 755.026 589.971 426.113 467.281 194.082 158.527 157.326 109.754 104.049 93.9551 77.9636 71.305 54.8639 52.3052 51.3577 49.4799 48.5559 42.3624 41.7574 32.9976 29.8983 28.4457 25.8722 25.8248 24.8369 24.7882 24.7863 21.7932 21.1056 20.6734 18.2518 17.7312 17.5409 16.9868 16.9582 16.2704 16.2361 15.8099 15.7166 15.5246 14.9641 16.9622 13.6841 13.4856 13.3999 13.3137 13.0749 12.1474 11.996 11.5718 11.2726 11.123 10.411 9.97114 10.5401 9.78089 9.71579 10.2622 9.55361 9.00989 8.98715 9.98309 8.82072 8.38181 8.12216 8.04283 7.52219 7.74711 7.14885 7.07483 8.08777 7.01271 7.00951 6.96605 6.96171 6.6886 6.64296 7.94159 6.46997 6.44273 6.21311 6.19957 8.81343 6.11123 6.10932 6.08213 5.72084 5.57545 5.40306 5.39992 5.38897 5.28052 5.26125 5.2364 7.25004 5.97079 5.18351 5.17986 4.94639 4.94636 8.19383 6.72251 5.18353 4.92467 4.85298 4.72377 4.6025 6.07307 4.58429 4.53455
threshold=167.50000000000003 0.32139803756390589 201.50000000000003 117.50000000000001 13.970000000000001 104.50000000000001 0.32139803756390589 0.29052868354417694 -111.29499999999999 -115.59499999999998 13.970000000000001 8.8900000000000023 96.500000000000014 61.270000000000003 -115.24499999999999 19.050000000000004 48.975000000000001 216.50000000000003 186.50000000000003 133.35000000000005 300.50000000000006 0.29052868354417694 143.51000000000002 37.910000000000004 61.675000000000004 -115.08999999999999 -113.52499999999999 24.130000000000003 44.230000000000011 0.33881286600169996 58.770000000000003 95.250000000000014 187.50000000000003 65.500000000000014 39.370000000000012 31.750000000000004 154.50000000000003 154.50000000000003 80.010000000000005 11.430000000000001 8.8900000000000023 11.430000000000001 -121.38499999999998 -111.07999999999998 61.090000000000011 161.29000000000005 97.790000000000006 -122.30999999999999 62.230000000000011 -106.27 6.3500000000000005 127.50000000000001 185.50000000000003 -121.38499999999998 47.055000000000007 1949.9580000000003 45.415000000000006 42.995000000000012 -113.52499999999999 171.45000000000002 152.50000000000003 -111.47999999999998 61.270000000000003 -115.59499999999998 61.675000000000004 154.50000000000003 24.130000000000003 43.420000000000009 -113.76499999999999 40.855000000000011 48.975000000000001 -120.63499999999998 95.250000000000014 58.770000000000003 -115.59499999999998 47.755000000000003 44.45000000000001 43.605000000000011 2778.8616000000006 43.605000000000011 37.910000000000004 979.93200000000013 42.995000000000012 -109.76499999999999 188.50000000000003 2855.0616000000005 2750.3628000000003 94.500000000000014 37.910000000000004 230.50000000000003 155.50000000000003 2822.9052000000006 34.290000000000013 -109.48499999999999 -112.51499999999999 -107.58999999999999 44.70000000000001 140.97000000000003 61.270000000000003 16.510000000000005 2839.2120000000009 43.515000000000008 2179.3200000000002 153.67000000000004 0.29052868354417694 45.310000000000009 45.500000000000007 42.090000000000011 48.940000000000005 65.500000000000014 -113.93499999999999
decision_type=2 2 2 2 2 2 2 2 2 2 2 2 2 2 2 2 2 2 2 2 2 2 2 2 2 2 2 2 2 2 2 2 2 2 2 2 2 2 2 2 2 2 2 2 2 2 2 2 2 2 2 2 2 2 2 2 2 2 2 2 2 2 2 2 2 2 2 2 2 2 2 2 2 2 2 2 2 2 2 2 2 2 2 2 2 2 2 2 2 2 2 2 2 2 2 2 2 2 2 2 2 2 2 2 2 2 2 2 2 2 2
left_child=1 3 7 4 11 10 17 24 13 16 40 50 15 14 27 99 29 21 34 23 26 64 37 35 32 44 48 -5 49 52 41 -27 59 66 -11 -10 70 77 61 -13 -3 -7 56 100 -14 63 65 -8 107 72 -1 -44 76 73 94 -56 -43 86 -59 -2 -37 62 74 -23 80 -25 -12 -65 -69 -45 71 -29 82 87 109 -49 -9 78 -16 91 -4 -58 -28 -84 -31 -74 -20 92 -34 -50 -21 -39 -35 -60 -30 96 -96 -71 -18 -6 101 -36 103 -103 -63 -94 -68 -19 -109 -17 -82
right_child=2 5 6 8 12 30 47 9 19 18 33 39 25 -15 22 38 98 20 57 90 -22 45 -24 46 -26 31 28 36 54 84 -32 -33 88 53 43 60 -38 79 -40 -41 -42 42 51 69 -46 -47 -48 75 89 -51 -52 -53 -54 -55 55 -57 81 58 93 -61 -62 104 -64 67 -66 -67 106 68 -70 97 -72 -73 85 -75 -76 -77 -78 -79 -80 -81 110 -83 83 -85 -86 -87 -88 -89 -90 -91 -92 -93 105 -95 95 -97 -98 -99 -100 -101 -102 102 -104 -105 -106 -107 -108 108 -110 -111 -112
leaf_value=0.0075179274797349408 -0.00027004043277360583 0.0047422821597383792 0.002793352156526941 0.0023583114888325453 -0.00067437611795265206 0.0036955800218737662 0.0031564356107950334 0.0026569044920337647 0.0012128355269039753 0.0019347622199172539 -0.00040358924917277008 0.0017099147026526139 -0.00073850802272847061 -0.0021085051973211218 -0.00049056828421775928 -0.0020131935493109647 0.00068253933944799729 0.0020487114307548046 0.0021511351169331539 -0.00061115318688362925 -0.0018347281106655233 0.002869584880838424 0.00015492923965141326 -0.0018184143333932357 -0.0016718424116395577 -0.0017648737437918342 0.003098540815725968 0.0007979286239497205 0.0011151701628773045 0.0025952618362210353 -0.00013092308552163913 -0.0011321116536901978 0.0019277517846055397 0.00056152687133483015 0.0013830172959527567 -0.0010979615080748714 0.00074086246388923378 0.00051035076325414567 -0.0017056882953945319 0.00033513479301748697 0.001862039616512318 0.0012164722802147894 0.0003303475324021658 0.00065040592646973009 -0.0021923761469359224 0.0032775056673263825 -0.0011120326422790153 0.0042593318999845633 0.0034266179384854819 0.0023721332788038813 0.0038800474743806378 0.0012509598138164433 0.0024695325149301155 -0.00084850568030999361 0.0013136446708088376 0.0045863242775243031 0.0010693723343932534 0.0019617566092208208 0.001109128954510315 0.00059281679089865356 -9.8631810187531049e-05 -0.0020972905758918511 -0.0027770244179399239 0.0023763705510453878 -0.00022639745787003188 -0.0011536413798272874 -0.0023232208755383553 0.0025800743054230392 0.0013516010372255727 -0.00029704762827982475 -0.001096851561287376 -5.1413145044847786e-05 0.0041025319325400126 -0.0011610887683294194 -0.0020689154740817089 0.0052164788539295209 0.0015928821615874378 -0.0012024611710255274 -0.0012690978708938031 -0.00063816303053908219 0.0025704317258090676 0.0020410677526168674 0.0030349544532576318 0.00094114780837596017 0.0032820542696844037 0.0031639564205641767 0.001522718252411388 0.00054328307857711246 0.00071190885889570903 0.0041496711028605237 -4.7620936488173258e-05 -0.00076461883452355324 -0.00090073262391320594 -5.459065511860161e-06 0.0031914356095317587 0.001165612512794061 0.0021071310960912495 0.00081606899947884689 -0.00075056801882294989 -0.0012997644854168162 0.00023651721118775435 0.00060565773466301023 -4.8351834807749368e-05 0.0016872561111607801 -0.0023687293249969803 -7.1979144972331309e-05 -0.0012808371078194107 0.0033553474352638907 0.0017993618809062095 -0.0015241044441824674 0.0013776629764640372
leaf_weight=749 32212 1904 3120 4111 17941 2051 7431 5212 3388 9069 6700 10891 50875 11507 35170 22775 6086 3960 27714 41938 1106 16113 36081 64552 5168 102313 29020 9625 4428 25962 7421 52002 3165 5402 27400 25089 29559 11794 81407 14885 5517 28797 16416 22451 5331 12634 51690 39074 16392 19124 5661 25981 28477 23082 1089 2353 5899 9661 13782 13889 9373 89126 11261 35009 2007 17718 4220 5411 13751 15491 4286 71222 9076 4417 104043 6742 31349 35899 13798 11039 2640 31877 3563 2653 15748 12439 20101 10487 28916 14955 18549 3184 8778 4172 4876 4837 18116 3976 2778 20494 6080 9216 6815 5267 116887 13661 14903 11982 2255 39893 27812
leaf_count=749 32212 1904 3120 4111 17941 2051 7431 5212 3388 9069 6700 10891 50875 11507 35170 22775 6086 3960 27714 41938 1106 16113 36081 64552 5168 102313 29020 9625 4428 25962 7421 52002 3165 5402 27400 25089 29559 11794 81407 14885 5517 28797 16416 22451 5331 12634 51690 39074 16392 19124 5661 25981 28477 23082 1089 2353 5899 9661 13782 13889 9373 89126 11261 35009 2007 17718 4220 5411 13751 15491 4286 71222 9076 4417 104043 6742 31349 35899 13798 11039 2640 31877 3563 2653 15748 12439 20101 10487 28916 14955 18549 3184 8778 4172 4876 4837 18116 3976 2778 20494 6080 9216 6815 5267 116887 13661 14903 11982 2255 39893 27812
internal_value=2.11436e-10 -0.000972864 0.00200754 -0.0012319 -0.00165038 0.000523038 0.00285088 0.00126666 -0.000618822 0.00156313 -0.000375162 0.001591 -0.00179642 -0.000249404 -0.000168909 -0.00197403 0.00220775 0.00258992 0.00115183 -0.00105977 0.00289905 0.00216673 -0.000515784 -0.00127854 0.000210941 -0.00137137 0.00293154 0.00026019 0.00270423 0.00237169 0.00127434 -0.00155164 0.0003354 -0.000616153 0.000796715 -0.00064365 0.000184983 -0.000734033 -0.00205382 0.000916025 0.00260106 0.00136828 0.00132447 0.000689976 -0.000876409 0.00245288 -0.00145793 0.00422662 0.00344346 0.00296787 0.00430517 0.000894508 0.002062 -0.000377857 0.00214387 0.00355098 0.00159829 0.00164976 0.00123903 -1.00783e-05 -0.000826172 -0.00212763 -0.00198447 0.00230464 0.00149984 -0.00167525 -0.0012236 0.0021366 0.00169851 0.000315983 -8.02027e-06 4.96991e-05 0.00316862 -0.000123703 -0.00193094 0.00440019 0.00174457 -0.000918284 -0.000709945 -0.000132996 0.00160304 0.00188934 0.00292969 0.00214136 0.00285457 0.0035599 0.00188696 -4.14497e-06 0.000831869 0.00377158 -0.000438345 0.0002393 -0.000210358 0.000850114 0.00199371 0.00213349 0.0023371 -6.96863e-05 0.000233367 -0.00100785 0.000976163 0.0010685 0.000663865 0.00099902 -0.0022513 -0.000396195 -0.00151088 0.00287821 0.00310892 -0.00170186 0.00148108
internal_weight=2.18774e+06 1.47362e+06 714125 1.25611e+06 746534 217513 333968 380157 509572 296807 99071 32186 714348 277275 265768 503827 115612 280721 181195 232297 162224 118497 146965 171810 83350 210521 161118 118803 111574 106748 118442 154315 78182 91650 105765 37850 114692 110884 465392 25776 7421 111021 108970 96696 56206 82918 133960 53247 49544 75875 6410 42397 65038 65827 35699 3442 66573 75430 27615 46101 34462 383985 177972 70284 35579 82270 25823 54171 19162 41918 85133 80847 56751 42745 166711 45816 36561 84867 48968 26017 33572 37776 35236 6216 41710 21515 47815 38328 32081 31347 60487 14978 27841 17954 32257 27829 22992 19467 8864 38435 54778 48698 21298 14483 206013 22439 19123 18197 14237 62668 30452
internal_count=2187744 1473619 714125 1256106 746534 217513 333968 380157 509572 296807 99071 32186 714348 277275 265768 503827 115612 280721 181195 232297 162224 118497 146965 171810 83350 210521 161118 118803 111574 106748 118442 154315 78182 91650 105765 37850 114692 110884 465392 25776 7421 111021 108970 96696 56206 82918 133960 53247 49544 75875 6410 42397 65038 65827 35699 3442 66573 75430 27615 46101 34462 383985 177972 70284 35579 82270 25823 54171 19162 41918 85133 80847 56751 42745 166711 45816 36561 84867 48968 26017 33572 37776 35236 6216 41710 21515 47815 38328 32081 31347 60487 14978 27841 17954 32257 27829 22992 19467 8864 38435 54778 48698 21298 14483 206013 22439 19123 18197 14237 62668 30452
is_linear=0
shrinkage=0.0275008


Tree=4
num_leaves=112
num_cat=0
split_feature=2 5 2 1 2 2 5 5 4 5 1 1 2 3 1 2 4 1 1 1 2 5 3 4 4 3 3 3 1 2 3 2 1 4 4 1 4 4 2 4 3 2 3 1 3 1 1 1 2 1 0 1 3 4 1 4 3 3 3 0 4 3 1 3 1 2 2 3 3 3 4 2 4 4 2 3 0 0 4 1 3 0 4 1 0 1 3 4 1 3 2 4 2 1 4 1 3 0 1 1 1 2 0 1 4 1 0 4 3 4 4
split_gain=5345.73 697.368 631.656 385.603 455.006 173.241 159.152 154.729 109.363 99.5979 87.9831 75.9546 61.1187 52.2233 51.3709 51.2546 46.1479 45.1422 41.3571 34.0983 30.9926 29.6094 25.3043 24.5516 24.3288 22.9584 21.418 18.9713 18.6749 18.4157 18.0394 16.6798 15.9735 17.7571 15.6238 15.5448 14.7206 14.295 13.9508 13.1754 16.9802 13.1139 12.9451 12.646 12.6049 12.1251 12.1112 11.7486 11.6317 11.1767 11.1011 10.7143 10.4624 10.372 10.3672 9.8445 9.44833 9.37612 9.22112 10.0012 8.64312 8.52461 8.83702 8.30142 8.08268 7.96139 7.77659 7.31458 7.30833 7.23673 8.09668 7.1036 6.86328 6.85938 6.78553 6.6561 6.42276 6.39222 6.38071 6.30264 6.2062 5.9914 7.59989 5.99134 5.79828 5.77955 5.72619 6.74846 5.57011 5.39108 5.35628 5.22308 5.00653 4.97745 4.88011 4.83175 6.50089 4.79374 4.71235 4.68319 4.53225 4.52364 4.44373 4.36293 4.3607 4.35109 4.32433 7.43876 4.30746 4.30687 4.27904
threshold=164.50000000000003 0.32139803756390589 200.50000000000003 13.970000000000001 106.50000000000001 101.50000000000001 0.32139803756390589 0.32139803756390589 -111.47999999999998 0.29052868354417694 11.430000000000001 8.8900000000000023 182.50000000000003 61.270000000000003 115.57000000000001 215.50000000000003 -116.25999999999998 19.050000000000004 133.35000000000005 85.090000000000018 300.50000000000006 0.29052868354417694 61.675000000000004 -111.47999999999998 -113.52499999999999 58.770000000000003 42.995000000000012 37.680000000000007 19.050000000000004 185.50000000000003 58.770000000000003 64.500000000000014 13.970000000000001 -121.38499999999998 -109.76499999999999 11.430000000000001 -106.27 -111.12499999999999 131.50000000000003 -115.08999999999999 60.670000000000009 132.50000000000003 58.770000000000003 173.99000000000004 48.975000000000001 41.910000000000004 31.750000000000004 95.250000000000014 124.50000000000001 6.3500000000000005 935.73600000000022 161.29000000000005 44.585000000000008 -117.65999999999998 77.470000000000013 -119.90499999999999 45.415000000000006 42.995000000000012 47.055000000000007 1949.9580000000003 -115.59499999999998 48.940000000000005 39.370000000000012 61.675000000000004 163.83000000000001 179.50000000000003 149.50000000000003 61.270000000000003 43.605000000000011 42.995000000000012 -109.48499999999999 65.500000000000014 -114.43499999999999 -115.59499999999998 215.50000000000003 41.980000000000011 2156.4600000000005 2530.1448000000005 -109.22999999999998 125.73000000000002 37.735000000000007 2778.8616000000006 -107.69999999999997 179.07000000000002 979.93200000000013 8.8900000000000023 42.995000000000012 -109.22999999999998 46.990000000000002 37.910000000000004 93.500000000000014 -111.97499999999998 152.50000000000003 146.05000000000004 -121.81999999999998 158.75000000000003 43.605000000000011 2839.2120000000009 16.510000000000005 194.31000000000003 44.45000000000001 44.500000000000007 2750.3628000000003 29.210000000000004 -113.52499999999999 49.530000000000008 1589.5320000000004 -121.76499999999999 37.910000000000004 -106.60499999999998 -114.27999999999999
decision_type=2 2 2 2 2 2 2 2 2 2 2 2 2 2 2 2 2 2 2 2 2 2 2 2 2 2 2 2 2 2 2 2 2 2 2 2 2 2 2 2 2 2 2 2 2 2 2 2 2 2 2 2 2 2 2 2 2 2 2 2 2 2 2 2 2 2 2 2 2 2 2 2 2 2 2 2 2 2 2 2 2 2 2 2 2 2 2 2 2 2 2 2 2 2 2 2 2 2 2 2 2 2 2 2 2 2 2 2 2 2 2
left_child=1 3 6 11 17 10 9 15 13 22 85 49 23 16 27 21 38 98 41 39 24 63 29 44 47 65 36 66 -12 51 32 101 -7 56 52 -13 81 50 -6 40 71 -18 74 60 45 -11 -25 67 -35 -1 -14 108 -28 -52 92 90 -34 88 91 -60 94 62 -40 80 -16 -8 -10 76 77 102 110 -19 -70 -47 -9 -73 -17 100 -59 -21 -4 -26 -83 -20 -58 -3 109 -88 -39 -31 -33 -54 -29 -76 -23 96 97 -75 -5 -91 -43 -30 -62 -77 -98 -68 107 -86 -2 -48 -71
right_child=2 5 7 4 8 30 25 42 14 12 28 35 37 -15 64 20 18 19 83 79 -22 43 -24 46 26 -27 34 54 31 89 -32 55 33 48 -36 -37 -38 57 61 -41 -42 68 -44 -45 -46 73 86 -49 -50 -51 53 -53 58 -55 -56 -57 84 78 59 -61 69 -63 -64 -65 -66 -67 105 -69 72 70 -72 75 -74 95 93 103 -78 -79 -80 -81 -82 82 -84 -85 106 -87 87 -89 -90 99 -92 -93 -94 -95 -96 -97 104 -99 -100 -101 -102 -103 -104 -105 -106 -107 -108 -109 -110 -111 -112
leaf_value=0.0073239014095616605 0.00059705139115306407 0.0046062355191230659 0.0028193460572404697 -0.00063222242793343055 -0.00021633957167916534 0.0030668816624273105 0.0022438344907021353 0.0037939051616526155 -0.0010348858187806272 0.0022925142923351572 0.00055359896922687192 0.0017522834333292322 -0.0002819320283073141 -0.0020940131059251428 -0.00081821005367381755 0.0034435714526603947 -0.0011220426865513743 -0.0019557080801632866 -0.00020713011511701117 -0.0016081121860298054 -0.0017842717679482127 0.0011744329005348758 -0.001684889212316244 0.0019927074512945662 0.0035820880795114866 0.0005362124965934249 0.0031980618667245215 -0.0018704057673647901 -0.0021374941135007025 0.0017707999656636441 -0.00014327393136582376 -0.00052794173123876342 0.0011001981448054057 0.00016931043606413856 0.0012413873893594492 0.00043057362954294952 0.0022849710078610697 0.0022847604782255879 0.001707774524755609 -0.0020957132509363597 -0.0025238663323549253 0.0010886395338711656 0.002530260801635487 0.0032234235223980523 -0.00092960818367250327 0.0013748798759009903 0.00063085281468704796 0.0037934708457077982 0.0011136536113755089 0.0038234111427084333 0.0024835592180861362 0.00045235302264866458 0.0012599351691177415 0.0017295629134142761 -0.0013326136241373298 -0.0015510689212601505 0.00095940032688776708 0.0010799172514136567 0.0013113844956648586 0.0044457653866891243 0.0025657745570609428 -0.0008282918004225854 0.00043004405386196917 -0.00030401542967249196 -0.00028716078860935589 0.0029123221293241223 0.0011780551896881674 0.0012604236796577696 -0.00021066668097872377 0.0026938974136665179 0.00047886472268315276 -0.0018281576919738222 -0.0011434402316389898 0.0011685316025388493 0.0041692868629781788 -0.00054895387436406143 0.002586181853327903 -0.00077904620194335856 -0.00017966421327154458 -0.001148808169036666 0.0013951163244229328 0.0025395652711101865 0.0033816013680909602 0.00035815735831273008 0.0016662544244488476 0.0025630887199250118 0.00018403724116519116 -0.0010818970036241158 0.0013115597856174113 0.00045026136047577784 0.00013186882391072452 0.0021982232289224383 -0.0012196189588639917 0.0048704053814665384 0.0028911224901949943 0.0013017717875306262 0.00064880598748964617 -1.3978951400449597e-05 -0.0012318772380896159 0.0013012484412041759 -0.00016036415135437768 -0.0011790491654938616 0.0019479777131424509 -0.0013377196208970204 -0.00040129392580110293 -0.00039494885953434648 0.0011319735776512151 0.0025923407646838014 -0.00050760631361201967 -1.7635911439226468e-06 0.001661527480348356
leaf_weight=778 2947 1834 2500 18576 41783 3570 24004 19061 24327 6502 9500 11661 1809 13209 67728 15287 65194 27036 32725 76965 1106 1361 5479 3164 17430 4318 9834 63818 4822 3399 7421 40162 28546 15948 10818 15916 19834 5527 4485 350342 17547 2469 3750 10746 2256 29349 24723 23013 25863 6103 17722 17108 6205 62355 83600 6002 5744 8139 1130 2418 19658 3682 46947 2044 31881 30732 1781 1797 8207 3925 3706 19964 21854 15327 19156 6304 11646 13570 4856 31993 31172 16643 15814 25022 16220 2443 9976 4678 22804 24952 12110 16221 10400 12773 15778 11719 6244 3120 21255 6084 19961 16377 15961 33466 5740 5251 4634 11018 28345 12132 13433
leaf_count=778 2947 1834 2500 18576 41783 3570 24004 19061 24327 6502 9500 11661 1809 13209 67728 15287 65194 27036 32725 76965 1106 1361 5479 3164 17430 4318 9834 63818 4822 3399 7421 40162 28546 15948 10818 15916 19834 5527 4485 350342 17547 2469 3750 10746 2256 29349 24723 23013 25863 6103 17722 17108 6205 62355 83600 6002 5744 8139 1130 2418 19658 3682 46947 2044 31881 30732 1781 1797 8207 3925 3706 19964 21854 15327 19156 6304 11646 13570 4856 31993 31172 16643 15814 25022 16220 2443 9976 4678 22804 24952 12110 16221 10400 12773 15778 11719 6244 3120 21255 6084 19961 16377 15961 33466 5740 5251 4634 11018 28345 12132 13433
internal_value=2.94031e-10 -0.000981568 0.00188269 -0.00123355 -0.0013165 0.000473947 0.00114725 0.00274908 -0.000771994 0.000922312 -0.000413546 0.00163444 0.00119504 -0.000403436 -0.00115373 0.00249554 -0.000325327 -0.00184698 -0.000575498 -0.00191021 0.00280408 0.00206153 0.000125122 0.000790671 0.00283427 0.00246687 0.00261362 -0.00141988 -0.000598757 0.000244846 0.00116961 -0.00073651 0.00125696 0.00119711 0.00215733 0.000989472 0.00291877 0.00163787 0.000162639 -0.00201493 -0.00174361 -0.00084533 0.00408991 0.00234193 0.00109685 0.00115547 0.000341209 0.00333041 0.000753459 0.00421924 0.00184831 -0.000101016 0.00243403 0.00189643 -0.00154264 -0.000496204 0.00147748 0.00122088 0.00214476 0.00344758 0.00221361 0.000449956 0.000541471 0.00139757 -0.000648245 0.00261917 -0.000802048 0.00295949 -0.000572245 0.00204997 0.00164585 -0.00158582 -0.000888792 0.00105206 0.0042046 -0.0014184 0.00307284 -0.000307912 0.000609212 -0.00147325 0.00150087 0.00317075 0.00294984 3.78061e-05 0.00176378 0.00343927 0.000239759 -0.000220067 0.00150143 0.000730979 -0.000375076 0.00193862 -0.00177922 0.00444977 0.00275482 0.000827275 0.000644537 0.000968514 -0.000952223 0.00061709 -2.28661e-05 -0.00139707 0.00228895 -0.0012127 0.000145813 3.40559e-06 0.00190874 0.00204087 -0.000403563 0.000422599 0.00189498
internal_weight=2.18774e+06 1.43801e+06 749730 1.2258e+06 1.19134e+06 212214 405510 344220 587894 346456 93250 34458 258142 299108 288786 289480 285899 603448 189002 563617 169196 120284 88314 134930 168090 59054 116347 189177 88973 82835 118964 79473 111543 107973 46626 27577 69721 123212 96897 454659 104317 131255 54740 84568 80257 78001 54673 51743 41811 6881 81886 48400 35808 80077 157818 58274 66162 41326 25974 3548 73822 55114 51432 35716 99609 54736 31359 28730 66061 56683 21064 86770 30061 71499 50990 59734 26933 36000 12995 108958 33672 49887 32457 57747 37616 4277 51509 14654 28331 34435 52272 22426 74218 31929 17139 42150 30431 18447 39831 31036 22430 21199 35619 39770 11984 7032 31872 27238 31292 36855 17358
internal_count=2187744 1438014 749730 1225800 1191342 212214 405510 344220 587894 346456 93250 34458 258142 299108 288786 289480 285899 603448 189002 563617 169196 120284 88314 134930 168090 59054 116347 189177 88973 82835 118964 79473 111543 107973 46626 27577 69721 123212 96897 454659 104317 131255 54740 84568 80257 78001 54673 51743 41811 6881 81886 48400 35808 80077 157818 58274 66162 41326 25974 3548 73822 55114 51432 35716 99609 54736 31359 28730 66061 56683 21064 86770 30061 71499 50990 59734 26933 36000 12995 108958 33672 49887 32457 57747 37616 4277 51509 14654 28331 34435 52272 22426 74218 31929 17139 42150 30431 18447 39831 31036 22430 21199 35619 39770 11984 7032 31872 27238 31292 36855 17358
is_linear=0
shrinkage=0.0275008


Tree=5
num_leaves=112
num_cat=0
split_feature=2 5 2 1 2 2 5 5 4 5 1 1 2 2 3 4 1 1 1 1 5 2 4 3 4 3 3 3 2 1 3 4 2 4 1 2 4 1 4 4 1 4 3 1 1 3 0 2 0 1 1 1 4 3 2 3 3 0 3 1 4 4 3 3 2 3 2 1 3 4 3 0 4 3 3 3 1 3 4 4 2 4 1 4 0 4 1 1 3 0 4 4 3 3 4 4 4 1 4 2 1 3 1 4 4 0 2 4 2 2 1
split_gain=5057.18 653.463 621.1 366.552 413.496 160.34 152.37 150.798 101.528 93.95 83.6617 71.8012 57.802 53.7409 46.0569 48.0151 45.2558 42.6934 34.4497 32.2486 30.3755 29.3115 23.9371 23.7746 23.009 21.9564 20.2561 18.8108 16.8462 16.4858 16.0632 16.3231 15.7832 14.7763 14.6786 14.0494 13.922 13.5851 13.508 12.9843 12.7553 12.4606 16.0591 11.8353 11.3503 11.1411 11.1225 10.9915 10.9343 10.6668 10.5738 10.1202 10.0978 9.89601 9.84454 9.71104 9.33391 9.45857 9.3074 9.12311 9.03777 8.9335 8.76072 8.5397 8.10939 7.47949 7.27568 7.25892 7.22874 8.04448 7.21942 7.41554 6.92817 8.16582 6.82699 6.76024 6.34974 6.33729 6.32717 6.30087 6.28592 6.13872 6.06988 6.05623 5.66633 7.18757 5.52563 5.48507 5.42016 5.33245 5.17654 5.0088 4.98928 4.93517 6.38832 4.85772 4.77402 4.55367 4.55058 4.49506 4.49242 5.01084 4.45671 4.33602 4.32223 4.27004 4.25069 4.23592 4.19191 4.17985 4.61009
threshold=163.50000000000003 0.32139803756390589 199.50000000000003 13.970000000000001 106.50000000000001 102.50000000000001 0.32139803756390589 0.32139803756390589 -111.28499999999998 0.29052868354417694 13.970000000000001 8.8900000000000023 181.50000000000003 215.50000000000003 61.270000000000003 -115.59499999999998 120.65000000000002 19.050000000000004 130.81000000000003 85.090000000000018 0.29052868354417694 300.50000000000006 -111.47999999999998 61.675000000000004 -113.52499999999999 58.770000000000003 42.995000000000012 37.910000000000004 184.50000000000003 13.970000000000001 58.770000000000003 -121.38499999999998 131.50000000000003 -109.76499999999999 11.430000000000001 65.500000000000014 -106.27 8.8900000000000023 -111.12499999999999 -122.30999999999999 173.99000000000004 -115.08999999999999 60.670000000000009 41.910000000000004 36.830000000000005 61.090000000000011 935.73600000000022 131.50000000000003 935.73600000000022 156.21000000000001 6.3500000000000005 87.63000000000001 -117.65999999999998 44.70000000000001 125.50000000000001 45.885000000000012 47.055000000000007 1949.9580000000003 42.995000000000012 29.210000000000004 -121.38499999999998 -115.59499999999998 45.415000000000006 61.675000000000004 149.50000000000003 48.975000000000001 179.50000000000003 24.130000000000003 42.995000000000012 -109.48499999999999 43.605000000000011 2778.8616000000006 -117.65999999999998 42.090000000000011 47.755000000000003 41.865000000000002 168.91000000000005 37.910000000000004 -122.30999999999999 -116.02 65.500000000000014 -111.61999999999999 41.910000000000004 -109.22999999999998 2778.8616000000006 -107.69999999999997 153.67000000000004 179.07000000000002 43.605000000000011 979.93200000000013 -121.81999999999998 -111.41499999999998 37.910000000000004 42.995000000000012 -109.48499999999999 -113.52499999999999 -120.63499999999998 194.31000000000003 -106.16499999999998 213.50000000000003 24.130000000000003 45.310000000000009 16.510000000000005 -113.93499999999999 -114.27999999999999 2839.2120000000009 45.500000000000007 -112.51499999999999 94.500000000000014 94.500000000000014 21.590000000000003
decision_type=2 2 2 2 2 2 2 2 2 2 2 2 2 2 2 2 2 2 2 2 2 2 2 2 2 2 2 2 2 2 2 2 2 2 2 2 2 2 2 2 2 2 2 2 2 2 2 2 2 2 2 2 2 2 2 2 2 2 2 2 2 2 2 2 2 2 2 2 2 2 2 2 2 2 2 2 2 2 2 2 2 2 2 2 2 2 2 2 2 2 2 2 2 2 2 2 2 2 2 2 2 2 2 2 2 2 2 2 2 2 2
left_child=1 3 6 11 17 10 9 13 14 23 37 50 22 20 15 32 27 102 47 41 63 24 43 28 45 66 36 64 49 -7 31 62 -6 53 -13 67 84 -3 48 -9 61 42 75 -11 -24 55 -45 -17 -14 -2 -1 -29 -50 91 -33 72 107 -58 82 -34 78 90 -31 77 -10 96 -8 -12 98 104 71 -49 -15 -74 99 -19 -18 -4 -37 -48 -77 108 -40 -60 -26 -86 88 -20 105 -64 -22 -28 -30 -46 -95 -90 -61 -94 -63 -41 -80 -102 -5 -79 -70 -81 -69 -55 -21 110 -43
right_child=2 5 7 4 8 29 25 39 16 12 35 34 38 21 -16 18 76 19 87 81 40 -23 44 -25 26 -27 33 51 92 30 -32 54 59 -35 -36 60 -38 -39 58 74 -42 109 -44 46 93 -47 79 70 52 -51 -52 -53 -54 56 -56 -57 57 -59 83 65 -62 68 89 -65 -66 -67 -68 106 69 -71 -72 -73 73 -75 -76 80 -78 103 100 86 -82 -83 -84 -85 85 -87 -88 -89 95 -91 -92 -93 97 94 -96 -97 -98 -99 -100 -101 101 -103 -104 -105 -106 -107 -108 -109 -110 -111 -112
leaf_value=0.0071224881104370898 -0.00045567208740708435 0.0044835467543080159 0.0025669768825046877 -0.00061483578228752652 -0.00029668153966241759 0.0029704965071388569 0.0021743468097112748 0.0029236210044102226 -0.0010872013229041089 0.002135325009060351 -0.00038066622822133077 0.001701787255343392 -0.00035232697137796518 0.0036604545221546742 -0.0020407891282932219 -0.0011538482886410597 -0.00078948395260365449 -0.0019170556505575173 -0.00028728998256143611 -0.0014377147711459536 0.0010961633916696477 -0.001735202914727945 0.0016621185511310128 -0.0016720513505174425 0.0034835780361800375 0.00047603918037930333 0.0012805539037973814 -0.0017501343836780015 0.0016619387926056863 0.001069162825198793 -0.00019132267301955343 0.00020137090982026823 0.0018890058070845323 0.0012072482911341194 0.00041649188715140898 -0.00080437482695582864 0.0022221326178405144 0.0017553393009844549 0.0023536427662837994 0.0036000874552594461 0.003104526010426145 -0.0016436634461490815 -0.0024544581490449427 -0.0013333770941305375 0.00034082093188891785 0.001468766658785447 0.0013167466715257501 -0.00017465091854752381 0.002377113440081075 0.00038340772362676121 0.0037171937762307157 -0.0012768360587338389 0.0016363199450824019 0.001024575909600039 0.0010785652239889481 0.0038353851868079629 0.0012753204150949499 0.004323503563044985 0.00099537343035591532 0.00096423016730587245 -0.00084878972794513133 0.0023229864855632901 0.00093456105261518596 -0.00033542552003137271 -0.0001373273458804824 -0.00093148104119151066 0.0028083828612121258 -0.0022032086997514082 0.0025975228969208233 0.00045473021212481633 -0.00098801205189136482 -0.0010422654527602728 0.0017204355495207206 0.0030378360853759558 0.0049167119893699929 -0.0017798304569226016 -0.00026247803132431387 0.0023439883066363187 0.0011112891467248854 0.0010614694653409838 -0.0011879944395759272 -0.0016399202526783596 0.0012507559305814449 -0.0002282753389990378 0.0024697253325729447 0.0032886047591234933 0.0012397958457188562 0.00027713458043273855 0.00062135166442029712 0.0018597473585658497 0.0027960254185679201 0.0032124364823043891 0.00038871683011094005 0.00014189544193415006 -0.0010982142856871171 -0.00045284983859875518 0.00024954395376028529 0.0012274359735452726 0.0014730259446856799 0.0042018031324125285 -0.00051210302035153271 0.00022608601918519674 -0.0011979996770039776 0.0012168147573917226 0.0015926603643707598 -6.9510960616396504e-05 -0.0012143924436821515 0.0020195846968571012 -0.0009517528871331079 -0.0018121437185803374 -0.0021050017003314378
leaf_weight=778 29777 1857 3373 18576 52708 3599 25660 7904 32065 6707 6700 11638 1824 9351 12975 62889 53051 25639 34323 30972 1473 1106 4177 5481 17430 4318 1124 83662 3406 27648 7048 15963 2753 10818 15904 8822 19834 5381 4474 14467 11658 17405 17547 1608 36370 2557 26466 28357 17889 18625 6087 57765 62703 4021 24571 18187 1130 2418 8168 8161 21726 32757 5562 2193 8627 3680 29354 4220 4179 3969 27204 10106 4491 17157 7057 20347 25654 2827 2655 15808 40784 54282 24151 4890 16643 15814 13943 20981 7246 30861 16980 10516 24977 9641 4660 5679 52838 6090 5577 26805 11631 17296 21255 29749 14387 3004 14903 16599 23704 52642 280295
leaf_count=778 29777 1857 3373 18576 52708 3599 25660 7904 32065 6707 6700 11638 1824 9351 12975 62889 53051 25639 34323 30972 1473 1106 4177 5481 17430 4318 1124 83662 3406 27648 7048 15963 2753 10818 15904 8822 19834 5381 4474 14467 11658 17405 17547 1608 36370 2557 26466 28357 17889 18625 6087 57765 62703 4021 24571 18187 1130 2418 8168 8161 21726 32757 5562 2193 8627 3680 29354 4220 4179 3969 27204 10106 4491 17157 7057 20347 25654 2827 2655 15808 40784 54282 24151 4890 16643 15814 13943 20981 7246 30861 16980 10516 24977 9641 4660 5679 52838 6090 5577 26805 11631 17296 21255 29749 14387 3004 14903 16599 23704 52642 280295
internal_value=3.87522e-10 -0.000966279 0.00180925 -0.00121121 -0.00129271 0.000448595 0.00107636 0.00265076 -0.000766884 0.000856595 -0.000386669 0.00158683 0.0011204 0.00240451 -0.0004362 -0.000367714 -0.00116876 -0.00179619 -0.000647095 -0.00185768 0.00198198 0.00272697 0.000727254 8.20864e-05 0.00275633 0.00236444 0.00254175 -0.0014069 0.000198101 0.00113847 0.00107942 0.00116504 5.98433e-05 0.002098 0.00095961 -0.000620552 0.0028385 0.00245534 0.00154905 0.00395708 0.00225509 -0.00195952 -0.00169566 0.00102925 0.000284221 0.00323882 0.000928667 -0.000893998 0.0017531 -0.00013279 0.00410315 -0.00155682 0.00180076 0.0023671 0.000733118 0.00333084 0.00204978 0.00335277 0.00114559 0.000338524 -0.000396466 0.00213025 0.00143829 0.00133052 -0.000885828 0.000272525 0.00251266 -0.00115969 0.00196954 0.00157861 -0.000645136 -0.000402621 0.00303481 0.00276455 0.00412609 -0.00154221 -0.000617709 0.00143215 -0.000153235 0.000979088 -0.00138499 -0.00143274 0.00142314 0.000537115 0.00308355 0.00286872 0.000783449 -7.31557e-05 0.000582953 0.00171847 0.00266035 0.00302591 0.000662699 0.00017063 -0.000262176 0.000149345 0.000345166 0.000553139 0.00219934 0.00399089 2.86425e-05 -7.07158e-05 -0.000926037 0.00131464 0.00181886 0.000880853 -0.00143262 0.00182557 -0.00122704 -0.00203808 -0.00207803
internal_weight=2.18774e+06 1.4261e+06 761647 1.21565e+06 1.18125e+06 210443 407096 354551 577799 347764 95191 34407 259408 298318 316975 304000 260824 603448 183860 563617 129122 169196 135309 88356 168090 59332 116347 182119 82875 115252 111653 104605 120140 46626 27542 87953 69721 7238 124099 56233 90980 454659 104317 80461 54848 51743 73754 128556 82416 48402 6865 141427 80592 35808 40534 49186 24168 3548 41683 67432 62130 79322 64071 38142 40692 64679 55014 25823 60869 22535 65667 38463 30999 21648 48329 86770 78705 35949 40404 72146 61131 108958 28625 13058 49887 32457 45680 55304 31737 36423 18453 11640 34473 50671 14301 12925 60999 31067 38334 41272 31582 28927 39831 32576 18566 18812 19123 20620 54676 350342 297700
internal_count=2187744 1426097 761647 1215654 1181247 210443 407096 354551 577799 347764 95191 34407 259408 298318 316975 304000 260824 603448 183860 563617 129122 169196 135309 88356 168090 59332 116347 182119 82875 115252 111653 104605 120140 46626 27542 87953 69721 7238 124099 56233 90980 454659 104317 80461 54848 51743 73754 128556 82416 48402 6865 141427 80592 35808 40534 49186 24168 3548 41683 67432 62130 79322 64071 38142 40692 64679 55014 25823 60869 22535 65667 38463 30999 21648 48329 86770 78705 35949 40404 72146 61131 108958 28625 13058 49887 32457 45680 55304 31737 36423 18453 11640 34473 50671 14301 12925 60999 31067 38334 41272 31582 28927 39831 32576 18566 18812 19123 20620 54676 350342 297700
is_linear=0
shrinkage=0.0275008


Tree=6
num_leaves=112
num_cat=0
split_feature=2 5 2 2 1 2 5 5 4 4 1 2 1 3 4 1 3 2 2 1 2 5 1 4 3 3 1 1 5 3 1 0 3 2 1 2 1 1 2 1 3 1 1 4 4 2 3 2 1 0 1 2 2 4 3 3 1 4 3 4 1 3 3 4 4 3 2 3 1 2 0 4 1 2 0 4 4 1 1 0 1 2 5 1 2 2 1 2 3 0 4 3 1 4 3 0 3 0 1 1 0 4 4 5 1 4 4 1 0 4 3
split_gain=4785.18 642.928 477.116 380.001 391.973 167.638 133.815 130.008 89.4669 88.1212 80.6735 77.5305 65.9643 46.4341 43.7407 43.1079 41.8991 38.3735 36.2063 33.4202 29.9048 29.4746 27.3266 26.5139 22.8154 22.0137 19.2206 18.7163 17.9661 17.9543 17.7791 17.5617 20.0949 17.2744 16.4277 17.5164 15.6601 15.6486 15.5591 14.7086 14.2455 13.406 12.6298 14.0612 11.3605 11.1645 10.8202 10.5089 9.82941 10.0384 9.80681 9.55183 9.20929 9.01253 9.13462 8.98322 8.56082 8.5152 8.48045 9.16939 8.446 8.33613 8.07826 10.6036 7.76844 7.54152 7.4379 7.36043 7.29795 7.06334 6.43919 6.28731 6.11996 5.93108 5.82227 5.81063 5.74752 5.59104 5.52432 5.3368 5.30993 5.24076 5.05143 5.00922 4.83337 4.73809 4.7272 4.71275 4.68732 4.67143 5.17393 4.62935 4.50383 4.47136 4.45121 4.45049 6.69043 6.12592 4.60694 4.44497 4.44038 4.35075 4.3449 4.32559 4.26057 4.18977 4.17896 4.12439 4.02949 7.53245 4.00242
threshold=168.50000000000003 0.32139803756390589 202.50000000000003 121.50000000000001 13.970000000000001 105.50000000000001 0.29052868354417694 0.32139803756390589 -111.29499999999999 -115.59499999999998 11.430000000000001 98.500000000000014 8.8900000000000023 61.090000000000011 -116.02 19.050000000000004 48.975000000000001 225.50000000000003 187.50000000000003 135.89000000000001 300.50000000000006 0.29052868354417694 151.13000000000002 -115.08999999999999 37.910000000000004 61.675000000000004 95.250000000000014 24.130000000000003 0.35301836880252019 58.770000000000003 156.21000000000001 2122.9320000000002 44.315000000000005 156.50000000000003 16.510000000000005 81.500000000000014 90.170000000000016 34.290000000000013 189.50000000000003 31.750000000000004 61.090000000000011 11.430000000000001 11.430000000000001 -121.38499999999998 -111.07999999999998 154.50000000000003 58.770000000000003 155.50000000000003 67.310000000000016 2855.0616000000005 6.3500000000000005 186.50000000000003 128.50000000000003 -111.47999999999998 61.270000000000003 37.910000000000004 199.39000000000001 -115.59499999999998 42.995000000000012 -113.52499999999999 97.790000000000006 45.415000000000006 42.995000000000012 -109.48499999999999 -119.90499999999999 61.675000000000004 153.50000000000003 39.70000000000001 59.690000000000005 45.500000000000007 2179.3200000000002 -114.73999999999998 26.670000000000005 243.50000000000003 2857.1952000000006 -106.16499999999998 -114.49999999999999 6.3500000000000005 46.990000000000002 979.93200000000013 44.45000000000001 188.50000000000003 0.29052868354417694 8.8900000000000023 216.50000000000003 156.50000000000003 46.990000000000002 65.500000000000014 37.910000000000004 2750.3628000000003 -115.08999999999999 37.735000000000007 146.05000000000004 -119.87999999999998 61.270000000000003 2970.7332000000006 43.605000000000011 2179.3200000000002 146.05000000000004 113.03000000000002 545.5920000000001 -109.48499999999999 -145.58499999999998 0.35301836880252019 16.510000000000005 -119.87999999999998 -121.81999999999998 13.970000000000001 1589.5320000000004 -121.76499999999999 42.910000000000004
decision_type=2 2 2 2 2 2 2 2 2 2 2 2 2 2 2 2 2 2 2 2 2 2 2 2 2 2 2 2 2 2 2 2 2 2 2 2 2 2 2 2 2 2 2 2 2 2 2 2 2 2 2 2 2 2 2 2 2 2 2 2 2 2 2 2 2 2 2 2 2 2 2 2 2 2 2 2 2 2 2 2 2 2 2 2 2 2 2 2 2 2 2 2 2 2 2 2 2 2 2 2 2 2 2 2 2 2 2 2 2 2 2
left_child=1 3 6 4 12 10 25 17 13 16 77 15 50 14 27 104 28 21 39 24 31 55 33 40 37 38 -25 -5 51 42 57 68 48 72 -12 69 53 -10 56 -11 93 -14 -7 61 95 60 84 100 83 -50 -1 78 -45 54 70 -4 88 106 75 -60 -26 -44 89 76 -37 71 -39 74 -19 -36 87 -57 -16 -51 -46 -20 -64 -3 -8 -63 -35 -30 -55 -33 -9 -21 -86 -17 -2 90 -59 -40 -69 -13 -18 96 -41 98 -98 110 -29 -61 -15 -71 -6 -102 -23 -22 109 -81 -74
right_child=2 5 7 8 11 29 9 46 19 18 34 23 41 102 22 36 94 20 58 85 107 30 -24 26 45 -27 -28 47 81 -31 -32 32 -34 80 35 64 -38 66 91 44 -42 -43 43 52 67 -47 -48 -49 49 73 -52 -53 -54 82 -56 65 -58 62 59 101 -62 79 63 -65 -66 -67 -68 92 -70 103 -72 -73 99 -75 -76 -77 -78 -79 -80 108 -82 -83 -84 -85 86 -87 -88 -89 -90 -91 -92 -93 -94 -95 -96 -97 97 -99 -100 -101 105 -103 -104 -105 -106 -107 -108 -109 -110 -111 -112
leaf_value=0.0069142800509686105 0.00078321828574916545 0.0073874005396580116 0.0027785047096854096 0.0023960152697481583 -0.00061518686482326757 0.003440049117682969 0.0024233766982770591 0.0036502610659613121 0.0012109994203702255 0.0020780822892716411 0.00082747989212811313 -0.00013691767857634381 0.0015795890715921714 -0.00146809534051744 0.0009750621953462811 -0.0018568227590040375 0.0006750244270057646 0.0029556960521039061 0.001910548380007698 -0.00051464872319671533 0.0014765726330565922 0.0013666779691514149 0.00028631446468641063 -0.0015979531247270909 -0.0016658457506007294 -0.0015047326181145853 -0.00098665695878828968 -0.0017607588840436552 0.0024262280455354685 -0.0001161398162769603 0.0031913581057220874 0.0045827241466483547 0.0020194922973441492 0.0014662751442231896 -0.0018467839921191818 -4.8051427486095857e-05 -0.0014769876177324383 -0.0009694209603588567 0.0020192017729991404 0.0012730517460569724 -0.0020050259212120278 0.00031500107211209139 0.0011377741186433257 0.00033928651037204639 0.0015890702652193217 -0.00087484958189855552 0.0024347024265868582 0.00083490640469245159 0.0038719603853480662 0.0026011386595612054 0.0035682663863224871 0.0023262641239377643 0.0011722153080862888 -0.0019093170330245798 -0.002539893356809157 0.0027619151018151338 0.00084716672245765555 0.0013869723388675746 0.0018656579813221739 0.0010483772636414694 -0.0011260244119658447 0.00099917655075067949 0.0029611147720368012 0.00059622038199980696 -0.0011462646176944372 7.7922544833673407e-05 -4.8400736422738651e-05 -4.7075413879286473e-05 0.0040114449972130364 -0.0015300166271879723 -0.0019117057993887309 0.0014928229431304624 -0.00069267819528165669 0.0036932080206946737 0.00044603942709689471 0.0010272414891264799 0.001794985767336315 0.0030380459339113008 0.0015128218520303002 0.0016509594229031153 -6.2457644843425512e-05 0.003066043934481134 -0.0021721102017219769 0.0025105121954050206 0.0034689158508595355 2.95521339703097e-05 0.004377192494929732 -0.0014385102387533223 -0.00021969287644379697 0.0020249478954728179 0.002721207845058634 0.00074380493278833164 0.000882304246540004 -0.00071584031114026809 -0.00065527771674827586 3.0641038915531644e-06 0.00057087874038172851 -3.5767764700041155e-05 0.0015826122777967192 -0.00046827299844190429 0.00051667718067575604 3.1553734443047788e-05 -0.0025892650379780819 -0.00072018497927192095 -0.0011933707192243225 1.7239587791772695e-05 0.002839435510093405 -0.002578743544994387 0.0011499523585937674 0.0025834892707544454 -0.0011266301669605725
leaf_weight=750 3905 236 4531 3456 18079 2012 6008 17458 3601 6159 6569 13209 10975 8803 1557 31487 6081 8369 40769 38456 243 1575 38497 108929 55814 5164 60514 914 23668 7422 17823 912 24511 1835 5956 37003 64246 22741 2336 31084 5854 15014 28802 16414 5312 34703 3512 22732 12962 14476 5691 28798 25854 98569 11907 3173 8327 2442 9626 13746 36104 5900 3830 5044 5610 2673 9362 24125 12139 5803 94792 42574 35904 5084 9223 6537 19357 4266 31293 16233 27032 16396 126166 27378 5222 17653 25579 57726 36156 20378 22092 27431 4714 42748 2768 3500 8786 6869 5558 27198 18336 4142 3720 35564 20654 41357 19600 863 4634 10987 29113
leaf_count=750 3905 236 4531 3456 18079 2012 6008 17458 3601 6159 6569 13209 10975 8803 1557 31487 6081 8369 40769 38456 243 1575 38497 108929 55814 5164 60514 914 23668 7422 17823 912 24511 1835 5956 37003 64246 22741 2336 31084 5854 15014 28802 16414 5312 34703 3512 22732 12962 14476 5691 28798 25854 98569 11907 3173 8327 2442 9626 13746 36104 5900 3830 5044 5610 2673 9362 24125 12139 5803 94792 42574 35904 5084 9223 6537 19357 4266 31293 16233 27032 16396 126166 27378 5222 17653 25579 57726 36156 20378 22092 27431 4714 42748 2768 3500 8786 6869 5558 27198 18336 4142 3720 35564 20654 41357 19600 863 4634 10987 29113
internal_value=4.65284e-10 -0.000884341 0.00187056 -0.00112242 -0.00149399 0.000490526 0.00120755 0.00264553 -0.000511563 0.00148229 -0.000332256 -0.00162117 0.00146651 -0.000167328 -8.48013e-05 -0.00180639 0.00207699 0.00240513 0.00110261 -0.000922017 0.00281098 0.00214224 -0.000352888 -0.00120179 -0.00112201 0.000234276 -0.00137964 0.000412901 0.00222854 0.00119329 0.00239475 0.00285799 0.0026843 -0.000553539 -0.000500125 -0.000597097 -0.00187691 -0.000508008 0.000349183 0.000774018 -0.00071423 0.00084904 0.00128097 0.00124105 0.000693026 -0.00129514 0.00390869 0.000330659 0.00295225 0.00327837 0.00395793 0.00194999 0.00084877 -0.00193799 -0.00180164 0.00160748 4.48378e-05 0.00224421 0.0015652 0.00118126 -0.00145382 0.00149018 0.0021036 0.00173903 -0.000192638 0.00149789 -0.000700839 0.000359172 0.00358062 -0.000961295 -0.00175387 0.00158085 -0.00073463 0.002885 0.000863795 0.00178849 0.00198762 0.00326611 0.00165949 0.00175901 3.47098e-05 0.00268808 -0.00205685 0.00257733 0.00401595 -0.000343427 0.00422321 -0.00158615 -0.000121925 0.00233276 0.00258842 0.000843903 0.00010483 -0.000579187 0.000258868 0.000952543 0.00101608 0.000639523 0.000962925 -0.0007635 0.000141526 0.000812946 -0.00180117 -0.000833796 -0.000923505 0.000170658 0.00272991 -0.00168748 0.00189974 0.00202737 -0.000886996
internal_weight=2.18774e+06 1.48546e+06 702281 1.2662e+06 787310 219265 378481 323800 478888 295162 101007 754880 32430 260454 247931 523626 115012 272029 180150 218434 106937 165092 161136 231254 162325 83319 169443 86795 106163 118258 112141 105831 85323 122639 96505 89936 484893 35704 78155 105330 61811 25989 110836 108824 99171 126621 51771 83339 60812 32522 6441 66099 42268 420647 195912 52951 48388 94318 74820 27514 91918 66556 73143 28231 42613 48420 32103 43374 20508 47323 184005 45747 93772 19560 14535 47306 23187 4502 37301 37754 28867 40064 224735 28290 48259 56109 30801 89213 40061 44912 24534 29767 28839 55957 8849 55797 52297 21213 14344 92215 60607 17888 12523 41367 38733 59693 21175 1106 31854 27220 65017
internal_count=2187744 1485463 702281 1266198 787310 219265 378481 323800 478888 295162 101007 754880 32430 260454 247931 523626 115012 272029 180150 218434 106937 165092 161136 231254 162325 83319 169443 86795 106163 118258 112141 105831 85323 122639 96505 89936 484893 35704 78155 105330 61811 25989 110836 108824 99171 126621 51771 83339 60812 32522 6441 66099 42268 420647 195912 52951 48388 94318 74820 27514 91918 66556 73143 28231 42613 48420 32103 43374 20508 47323 184005 45747 93772 19560 14535 47306 23187 4502 37301 37754 28867 40064 224735 28290 48259 56109 30801 89213 40061 44912 24534 29767 28839 55957 8849 55797 52297 21213 14344 92215 60607 17888 12523 41367 38733 59693 21175 1106 31854 27220 65017
is_linear=0
shrinkage=0.0275008


Tree=7
num_leaves=112
num_cat=0
split_feature=2 5 2 1 2 2 5 5 4 5 1 1 2 2 3 1 4 1 1 1 5 2 4 3 4 3 3 1 1 3 2 2 4 1 3 4 2 4 4 4 3 1 3 1 1 1 2 1 0 2 1 3 4 4 5 3 1 4 3 0 3 1 1 1 2 2 3 4 3 4 3 4 4 1 3 3 3 4 1 0 4 0 1 3 4 3 1 4 4 1 3 3 4 3 3 4 3 4 3 1 4 4 2 3 3 1 0 4 4 2 1
split_gain=4526.8 584.292 555.466 328.473 370.05 143.937 136.816 134.945 90.5257 84.284 74.2189 64.3624 51.84 48.7569 42.6706 42.0858 40.8804 38.0054 33.8263 31.3701 27.2914 26.2514 21.4286 21.285 20.6776 19.7695 18.4878 16.7691 16.6729 16.5139 15.2665 14.7437 13.7155 13.159 12.9997 12.8944 12.6628 12.036 11.7908 11.6487 14.9626 11.5507 10.7669 10.7706 10.5313 10.2818 10.0966 9.78857 9.77399 9.66196 9.46303 9.22342 9.17194 8.79799 8.74288 8.38338 8.0678 7.93662 7.90518 8.81827 7.62349 7.27794 6.89742 6.72673 6.70466 6.50499 6.42727 6.33868 6.26573 7.23852 6.19748 5.98993 5.94374 5.89261 5.85193 5.72545 5.62634 5.38121 5.17573 5.13045 6.75269 4.94904 4.91621 4.80177 5.89645 4.78031 4.75082 4.72317 4.71053 4.70344 5.28773 4.87032 4.63297 4.62113 4.58275 4.51195 4.46206 5.64602 4.66042 4.38354 4.23195 4.22083 4.21854 4.0948 5.25533 4.05817 4.03545 4.02486 4.01653 3.99894 3.98578
threshold=163.50000000000003 0.32139803756390589 199.50000000000003 13.970000000000001 107.50000000000001 99.500000000000014 0.32139803756390589 0.32139803756390589 -111.47999999999998 0.29052868354417694 11.430000000000001 8.8900000000000023 181.50000000000003 215.50000000000003 61.090000000000011 110.49000000000002 -116.25999999999998 19.050000000000004 135.89000000000001 82.550000000000026 0.29052868354417694 300.50000000000006 -111.47999999999998 61.675000000000004 -113.52499999999999 58.770000000000003 42.995000000000012 19.050000000000004 13.970000000000001 37.680000000000007 183.50000000000003 115.50000000000001 -109.76499999999999 11.430000000000001 58.770000000000003 -106.27 64.500000000000014 -111.12499999999999 -122.30999999999999 -115.08999999999999 60.670000000000009 184.15000000000003 48.975000000000001 46.990000000000002 90.170000000000016 31.750000000000004 128.50000000000003 148.59000000000003 935.73600000000022 133.50000000000003 6.3500000000000005 44.585000000000008 -117.65999999999998 -121.38499999999998 0.35301836880252019 42.195000000000007 153.67000000000004 -115.59499999999998 47.055000000000007 1949.9580000000003 61.675000000000004 31.750000000000004 74.930000000000021 125.73000000000002 82.500000000000014 178.50000000000003 47.755000000000003 -107.65499999999999 43.420000000000009 -113.76499999999999 45.415000000000006 -121.38499999999998 -109.48499999999999 44.45000000000001 61.270000000000003 37.735000000000007 42.090000000000011 -115.59499999999998 36.830000000000005 2778.8616000000006 -107.69999999999997 545.5920000000001 8.8900000000000023 42.995000000000012 -109.22999999999998 37.735000000000007 214.63000000000002 -145.58499999999998 -111.97499999999998 166.37000000000003 43.605000000000011 40.355000000000011 -121.81999999999998 45.260000000000012 58.770000000000003 -105.07499999999997 43.605000000000011 -113.52499999999999 40.355000000000011 199.39000000000001 -106.16499999999998 -117.145 139.50000000000003 37.495000000000012 44.795000000000009 199.39000000000001 979.93200000000013 -106.60499999999998 -121.38499999999998 212.50000000000003 16.510000000000005
decision_type=2 2 2 2 2 2 2 2 2 2 2 2 2 2 2 2 2 2 2 2 2 2 2 2 2 2 2 2 2 2 2 2 2 2 2 2 2 2 2 2 2 2 2 2 2 2 2 2 2 2 2 2 2 2 2 2 2 2 2 2 2 2 2 2 2 2 2 2 2 2 2 2 2 2 2 2 2 2 2 2 2 2 2 2 2 2 2 2 2 2 2 2 2 2 2 2 2 2 2 2 2 2 2 2 2 2 2 2 2 2 2
left_child=1 3 6 11 17 10 9 13 14 23 82 50 22 20 16 29 46 110 49 39 60 24 42 30 44 65 35 -12 -7 67 47 71 51 -13 53 79 -29 48 -9 40 64 57 43 -11 74 -24 -6 -2 -14 -18 -1 -28 -50 70 -38 78 -17 92 88 -60 75 -48 -31 -21 93 -8 109 102 100 -70 -33 -30 -57 -51 76 -4 101 -45 -39 -26 -81 -63 -3 107 -85 -32 -20 -16 -53 90 91 -79 -22 -19 108 -69 98 -98 -75 -87 -59 -15 -10 -41 -105 -77 -72 -47 -56 -40 -5
right_child=2 5 7 4 8 28 25 38 15 12 27 33 37 21 87 56 18 19 86 63 41 -23 45 -25 26 -27 32 36 31 62 85 34 -34 -35 -36 -37 54 55 66 103 -42 -43 -44 77 -46 83 61 -49 52 73 -52 58 -54 -55 94 72 -58 68 59 -61 -62 81 -64 -65 -66 -67 -68 95 69 -71 106 -73 -74 96 -76 105 -78 89 -80 80 -82 -83 -84 84 -86 99 -88 -89 -90 -91 -92 -93 -94 -95 -96 -97 97 -99 -100 -101 -102 -103 -104 104 -106 -107 -108 -109 -110 -111 -112
leaf_value=0.0067416844228625466 -0.00050195513581081106 0.0042571136120764961 0.0025735816087313198 -0.000577078109933477 -0.00019701972822506057 0.002821551922651174 0.0020414160589467055 0.0027584778902961355 -0.00055563372632302173 0.0019864102850427009 0.00051471849216553158 0.0016117776424674519 -0.0003317374036251953 0.0028123752080636845 -0.0014999347764868642 -0.00082589306996439123 -0.0010109777779367297 -0.0018303598115164855 -9.3527221294308318e-05 -0.0014830472661715804 0.0010354560598296995 -0.0016410692202022902 0.001814862065097427 -0.0015829215380740794 0.0033060976981463216 0.00044733178950414861 0.002958802379398307 -0.0012941469155762623 0.00075319678630623001 -0.0016659585362418649 0.0016762951554341082 0.001126895631185146 0.0011239933823597747 0.00039482702853457677 -0.00012192029325957951 0.0020964355797462551 -0.0011871181192529877 0.0023642523263767731 0.0033849814114514393 -0.0016024769914923611 -0.0023295897515405286 0.0030151572819741442 -0.00090011532830036362 0.0012086382275774338 0.0034820107358669787 0.00054453582440882676 0.0016815204669070672 0.00030543908414059511 0.0022531944193806583 0.00042804524319603248 0.0035201910670004523 0.0011344343316365493 0.0015471776333325672 0.00089006888097441683 -5.3640562888000745e-05 0.0010035895328555265 -0.00033197999858829873 0.002190746180611478 0.0011702072152321109 0.0041134153876509674 -0.00031939306798076626 -0.0017405049503118608 -0.0012819980930015898 -0.0010261112020548181 -0.001143144025512486 0.002644161617781839 0.0046714879456959697 -0.001060937656557085 0.0022755609602432936 0.001177914291349283 0.00098030233597395672 -5.6586024267275008e-05 -0.00012081708107557727 -0.00072210429418038014 0.0011609496661593726 0.0011247025822266939 0.0030249270825493135 0.00039029862176518922 0.00122845199872021 0.0023342939152161419 0.0031280147912586659 0.00035762326845879979 0.0023492311437632064 0.00013440678983616026 -0.0010461559407165771 0.00036753066919893669 0.00053035978725896559 -0.0025808520145745081 0.0020254978179715371 0.0012252542764208659 0.0001032173088348973 0.0012724054843220431 0.0026403349683098041 -0.0012915627282810919 -0.0012469351502582332 0.0008095219463478884 -0.0004572709318963728 -0.0012498147112771549 -5.3099480911183422e-05 0.0011867097794591667 0.0013777549328042051 0.0013399389725680813 0.00081560164089603123 -0.0020134390090205808 -0.0017365693606673869 0.0019762207632003197 0.0018824737269573441 -6.5231030452878052e-05 -0.00065032503292186369 0.0039620796150711081 -0.0011277632016877212
leaf_weight=778 25819 1791 2680 18622 34396 3854 24123 7904 4446 7961 9283 11638 1824 2868 10389 67847 65770 34346 41702 88164 1476 1106 3071 5481 17430 4318 9834 21199 18598 65979 2899 21870 10818 15904 5580 19834 11216 3490 13510 26629 17572 9954 2254 28704 24418 24874 3162 20273 17889 4467 6087 6205 62703 31608 27390 9073 39620 34481 1130 2418 2193 864 76332 33679 33272 30891 7057 20861 6421 15550 4442 10990 5846 15638 1758 28290 19671 9341 23274 16643 15814 53252 2380 9995 4706 27879 11855 4334 16221 10403 12198 9600 17462 18544 3736 1023 13186 14036 15866 6005 5636 3028 2744 256300 65021 4979 24113 12202 12393 27762 21329
leaf_count=778 25819 1791 2680 18622 34396 3854 24123 7904 4446 7961 9283 11638 1824 2868 10389 67847 65770 34346 41702 88164 1476 1106 3071 5481 17430 4318 9834 21199 18598 65979 2899 21870 10818 15904 5580 19834 11216 3490 13510 26629 17572 9954 2254 28704 24418 24874 3162 20273 17889 4467 6087 6205 62703 31608 27390 9073 39620 34481 1130 2418 2193 864 76332 33679 33272 30891 7057 20861 6421 15550 4442 10990 5846 15638 1758 28290 19671 9341 23274 16643 15814 53252 2380 9995 4706 27879 11855 4334 16221 10403 12198 9600 17462 18544 3736 1023 13186 14036 15866 6005 5636 3028 2744 256300 65021 4979 24113 12202 12393 27762 21329
internal_value=5.71484e-10 -0.000914206 0.00171175 -0.00114581 -0.00122296 0.00042369 0.00101866 0.00250755 -0.000716998 0.000810418 -0.000413289 0.00150291 0.00106028 0.00227461 -0.000375847 -0.00107046 -0.000298401 -0.00169123 -0.000536382 -0.00174836 0.00187215 0.00258175 0.000687965 7.68329e-05 0.00260954 0.00223923 0.00240611 -0.000588607 0.00104172 -0.001338 0.000186605 0.000983195 0.00198218 0.000909066 0.00116245 0.00268962 -0.000723493 0.00146623 0.0037433 -0.00185399 -0.0015982 0.00213102 0.000973703 0.00102771 0.00306694 0.000268788 0.000175408 -0.000146826 0.00165884 -0.000777646 0.00388532 0.00224144 0.0017039 0.00124981 -0.000502473 0.00108538 -0.000643804 0.00202241 0.00196982 0.00317612 0.00125464 0.000399059 -0.00146001 -0.00135675 -0.00144903 0.00237987 0.00390436 -0.000740735 0.00187207 0.00149871 0.00147531 0.000452406 0.000562972 -0.000534794 0.00269601 0.00135067 0.00280155 0.000919058 0.00137657 0.00292545 0.00272103 0.00032412 0.00316853 0.000177081 -0.000243488 0.00060443 4.45666e-05 -0.00181814 0.00177896 0.000718962 0.000549809 0.000837398 0.00251527 -0.00164146 -0.000326015 -0.000973487 -0.000608037 -0.000865927 -0.00038519 0.000512716 0.00207654 0.00205623 -3.22733e-05 -0.00193025 -0.00195741 0.00125215 0.00174214 0.000343849 -0.000239524 0.00377318 -0.000871085
internal_weight=2.18774e+06 1.4261e+06 761647 1.21565e+06 1.18125e+06 210443 407096 354551 567769 347764 89388 34407 259408 298318 288917 278852 274194 613478 182520 573527 129122 169196 135309 88356 168090 59332 116347 85217 121055 171385 82875 117201 46626 27542 87613 69721 75934 124099 56233 451684 103734 90980 80461 78207 51743 54848 91674 46092 82416 128963 6865 35808 80592 82033 54735 41683 107467 81026 25974 3548 38142 57278 142311 121843 86162 55014 48329 29074 62088 21971 50425 29588 14919 63193 27325 35949 25567 70246 26764 49887 32457 54116 4171 51777 14701 36783 53557 14723 22426 41542 31139 18941 18938 52890 43519 21884 58726 27222 31504 33884 40117 5896 7190 347950 321321 33269 28555 37076 39783 41272 39951
internal_count=2187744 1426097 761647 1215654 1181247 210443 407096 354551 567769 347764 89388 34407 259408 298318 288917 278852 274194 613478 182520 573527 129122 169196 135309 88356 168090 59332 116347 85217 121055 171385 82875 117201 46626 27542 87613 69721 75934 124099 56233 451684 103734 90980 80461 78207 51743 54848 91674 46092 82416 128963 6865 35808 80592 82033 54735 41683 107467 81026 25974 3548 38142 57278 142311 121843 86162 55014 48329 29074 62088 21971 50425 29588 14919 63193 27325 35949 25567 70246 26764 49887 32457 54116 4171 51777 14701 36783 53557 14723 22426 41542 31139 18941 18938 52890 43519 21884 58726 27222 31504 33884 40117 5896 7190 347950 321321 33269 28555 37076 39783 41272 39951
is_linear=0
shrinkage=0.0275008


Tree=8
num_leaves=112
num_cat=0
split_feature=2 5 2 2 1 2 5 5 2 4 4 1 1 3 1 3 4 2 2 4 1 2 5 3 1 3 1 2 3 1 0 3 5 3 1 2 1 2 1 2 1 1 1 1 4 2 3 4 1 0 3 1 2 3 2 3 4 1 2 4 3 1 4 3 1 3 4 1 2 3 1 3 0 0 4 5 3 0 2 4 4 3 4 4 0 0 4 1 0 3 1 1 3 2 4 4 3 5 0 4 2 3 3 3 1 3 1 0 3 2 1
split_gain=4283.03 579.241 407.571 356.993 348.583 152.858 116.937 116.293 81.5726 77.8483 76.3796 72.2864 59.1017 41.8624 38.5982 36.4835 35.0926 35.0388 29.9374 28.69 28.4497 26.8084 26.5833 21.5582 20.3596 19.2049 19.0604 18.8482 16.7638 16.1559 15.9373 18.1652 15.511 15.2181 14.8779 14.7283 13.9684 13.0981 12.6403 12.1865 12.1323 12.0275 12.007 11.5621 12.7029 10.7294 9.83945 9.82626 9.18509 9.43295 8.95274 8.84398 8.71587 8.15849 7.80692 7.7968 8.35587 7.78561 8.54219 7.76342 8.16431 7.71259 7.71465 7.59606 7.34887 7.25082 10.0533 7.07582 6.9475 6.7559 6.69177 6.05753 6.14552 5.95017 5.81457 5.80214 5.75106 7.28536 5.75092 5.61344 5.37282 5.3627 5.36108 5.30995 5.16909 4.93381 4.90914 4.89917 4.80789 4.92834 4.74591 4.6802 4.6689 4.47545 4.4718 5.90114 4.38978 4.29561 4.27501 4.77046 4.26257 4.24704 4.19926 4.03542 3.97151 3.94336 3.90066 3.87464 6.92458 3.862 3.81529
threshold=169.50000000000003 0.32139803756390589 202.50000000000003 124.50000000000001 13.970000000000001 105.50000000000001 0.29052868354417694 0.32139803756390589 98.500000000000014 -111.29499999999999 -115.59499999999998 13.970000000000001 8.8900000000000023 61.270000000000003 19.050000000000004 48.975000000000001 -115.24499999999999 225.50000000000003 187.50000000000003 -115.08999999999999 135.89000000000001 300.50000000000006 0.29052868354417694 37.910000000000004 95.250000000000014 61.675000000000004 26.670000000000005 155.50000000000003 58.770000000000003 156.21000000000001 2122.9320000000002 44.315000000000005 0.35301836880252019 61.090000000000011 34.290000000000013 89.500000000000014 80.010000000000005 189.50000000000003 39.370000000000012 156.50000000000003 11.430000000000001 8.8900000000000023 133.35000000000005 11.430000000000001 -121.38499999999998 156.50000000000003 58.770000000000003 -110.58499999999999 62.230000000000011 2855.0616000000005 42.195000000000007 6.3500000000000005 128.50000000000003 37.910000000000004 187.50000000000003 42.995000000000012 -113.52499999999999 21.590000000000003 46.500000000000007 -111.47999999999998 61.270000000000003 8.8900000000000023 -115.59499999999998 45.415000000000006 204.47000000000003 42.995000000000012 -109.48499999999999 105.41000000000001 154.50000000000003 61.675000000000004 59.690000000000005 43.605000000000011 2778.8616000000006 2179.3200000000002 -113.93499999999999 0.35301836880252019 43.515000000000008 2839.2120000000009 243.50000000000003 -121.38499999999998 -106.16499999999998 48.975000000000001 -119.87999999999998 -114.49999999999999 2179.3200000000002 979.93200000000013 -119.87999999999998 8.8900000000000023 1175.0040000000001 47.610000000000007 194.31000000000003 46.990000000000002 58.770000000000003 156.50000000000003 -109.60999999999999 -106.60499999999998 45.260000000000012 0.29052868354417694 2750.3628000000003 -115.08999999999999 65.500000000000014 37.735000000000007 37.910000000000004 48.940000000000005 138.43000000000004 61.270000000000003 13.970000000000001 1093.4700000000003 47.440000000000005 220.50000000000003 16.510000000000005
decision_type=2 2 2 2 2 2 2 2 2 2 2 2 2 2 2 2 2 2 2 2 2 2 2 2 2 2 2 2 2 2 2 2 2 2 2 2 2 2 2 2 2 2 2 2 2 2 2 2 2 2 2 2 2 2 2 2 2 2 2 2 2 2 2 2 2 2 2 2 2 2 2 2 2 2 2 2 2 2 2 2 2 2 2 2 2 2 2 2 2 2 2 2 2 2 2 2 2 2 2 2 2 2 2 2 2 2 2 2 2 2 2
left_child=1 3 6 4 12 11 25 17 14 13 15 41 51 16 110 32 26 22 38 33 23 30 53 34 -21 37 -5 42 43 61 70 48 54 86 -11 57 59 64 -12 81 -14 -3 71 -7 63 67 90 -40 87 -50 94 -1 -46 -4 91 80 -57 -13 -59 60 73 -24 -63 -45 101 98 83 -25 -36 74 -19 72 -18 100 -55 -60 77 -29 -51 -37 -20 82 -28 -67 -78 -65 -10 -32 89 -34 109 -8 -77 -22 -49 -96 -88 -61 99 -64 -16 -2 -39 -41 -58 -17 -23 108 -87 -9 -6
right_child=2 5 7 9 8 28 10 46 19 20 18 35 40 -15 36 105 27 21 55 24 93 106 29 45 -26 -27 39 76 -30 -31 31 -33 88 -35 68 79 -38 102 47 103 -42 -43 -44 44 52 -47 -48 50 49 78 -52 -53 -54 69 -56 56 104 58 75 97 -62 62 65 85 -66 66 -68 -69 -70 -71 -72 -73 -74 -75 -76 92 84 -79 -80 -81 -82 -83 -84 -85 -86 107 96 -89 -90 -91 -92 -93 -94 -95 95 -97 -98 -99 -100 -101 -102 -103 -104 -105 -106 -107 -108 -109 -110 -111 -112
leaf_value=0.0065411440602494118 0.00090287428459718481 0.004149227961888215 0.0026323673774657861 0.0021291228578337162 -0.00058239869791151875 0.0032748221225482404 0.0023139805131147393 0.0032633820933430668 -7.1892047831696607e-05 0.0013168709858147932 0.001750168550180866 9.8322936984088819e-06 0.0014997426848481924 -0.0018165791668427714 -0.0017593779912952756 0.00066341840640638417 -0.00030314965183811751 0.0027977645455182633 0.0018131098442181733 -0.0015051083300037062 -0.00047332674312491375 0.0014810964521860029 0.0045954184125281891 -0.0015183476153655751 -0.00091732862577948023 -0.0014085552733535984 0.00056645910570798485 0.00069693560288389079 -0.00011801572580896499 0.0030234242443952343 0.0043860076502058873 0.001910231410081432 0.0028053536520413346 -0.0018917770459172564 -0.00087626229209543654 0.00027355072147380757 -0.0014665378271388934 0.0017880685731499891 0.00087438308236356395 0.00082485188776049948 0.0003004835052710837 0.0016324002566596612 -6.2635375935400661e-05 0.001084373676848229 0.00031504221366780103 -0.00076419424019830563 0.0022918860918977957 -0.00072674554969769155 0.0036438674696692647 0.0024464507558973857 -0.00041699018070602854 0.003372129330766571 0.0011219904900986539 0.0024968840290637666 0.0022252608670885262 0.0017668318608629555 0.00056860751271650895 -0.001940443785033173 -0.0014791708669385265 -0.0018168318049082116 -0.0024205217793746956 0.0025601974554687861 0.0012685700033500246 0.00094784866277053219 0.00086508764537210207 0.0027945257116247261 0.0004943569697085764 -0.00098588662387735565 2.5264955669963179e-05 6.7971906269255364e-05 0.0038087231611617883 -0.0010670758490892321 -0.0010845919611686414 -0.0018252263584269493 0.0013949340891855535 -0.00055629308398836598 0.000240143192006205 -0.00053075354612118226 0.0034810503425797704 -0.00051272989863936926 0.00096372881206622575 -0.00095091352046990129 -6.3778110431834255e-06 0.0016706969999997945 -0.00068424281114736949 0.001643221609421522 -0.00080946472832765998 0.002333666844522892 0.0024207678053533182 0.0045067965785992939 0.0042239362563316401 0.0014738940475212165 -0.001577875476716792 4.6569395682580472e-05 0.0011305369255802237 0.00021979367194909568 -0.00023249957205949388 -0.0020672946627219397 0.0018837104402059397 0.0025543275182482645 -0.0013516592596659819 -0.00017358188030081054 0.00069134930729232728 -0.00045207424438713337 0.0016307753944527659 -0.00060749535097486473 -0.0024626954954340679 0.0016301058155266516 0.0032520824778383916 0.0038615326493369739 -0.0011295378213297207
leaf_weight=754 3004 1934 4531 4307 18079 2036 5982 13539 14968 3402 8779 8638 11043 10400 30662 5901 26464 8369 40769 121197 36279 243 943 60206 70496 5009 16077 18093 7543 17823 912 24511 5357 6632 21145 18679 89723 2929 57647 27156 15110 5580 26634 29259 16414 32168 3512 1844 13917 15388 9808 5724 26417 3966 26853 9626 14633 5186 7396 90524 11644 20962 2426 5992 7218 3812 4983 27501 9311 2673 12139 27377 10685 88412 41781 39030 9473 4581 5524 10859 6537 3681 53382 19199 8848 4817 34324 25071 31825 1696 14121 31090 3705 19122 10981 10552 14060 121124 20175 21818 52804 35874 26838 2010 3255 2687 863 24039 3490 20599 20654
leaf_count=754 3004 1934 4531 4307 18079 2036 5982 13539 14968 3402 8779 8638 11043 10400 30662 5901 26464 8369 40769 121197 36279 243 943 60206 70496 5009 16077 18093 7543 17823 912 24511 5357 6632 21145 18679 89723 2929 57647 27156 15110 5580 26634 29259 16414 32168 3512 1844 13917 15388 9808 5724 26417 3966 26853 9626 14633 5186 7396 90524 11644 20962 2426 5992 7218 3812 4983 27501 9311 2673 12139 27377 10685 88412 41781 39030 9473 4581 5524 10859 6537 3681 53382 19199 8848 4817 34324 25071 31825 1696 14121 31090 3705 19122 10981 10552 14060 121124 20175 21818 52804 35874 26838 2010 3255 2687 863 24039 3490 20599 20654
internal_value=6.52501e-10 -0.000826331 0.0017918 -0.00105143 -0.00139572 0.000473486 0.00116395 0.00250282 -0.00151145 -0.000436971 0.00142518 -0.000314839 0.00138938 -0.000108603 -0.00170959 0.00198775 -3.42071e-05 0.00227545 0.00106593 -0.00111496 -0.000828196 0.00266326 0.00202425 -0.00102075 -0.00128895 0.0002407 0.000336986 -0.00033366 0.001137 0.00226405 0.00270778 0.00254231 0.0021316 -0.000638378 -0.000407961 -0.000523408 -0.00177632 0.000349599 0.000753675 0.000261535 0.000806877 0.00228024 -0.000553904 0.00122118 0.00118331 -0.00119382 0.00369749 0.00065736 0.00279707 0.00308902 0.000280351 0.00374103 0.000812753 0.00151639 0.00186814 0.00148163 0.0011135 -0.000757984 -0.000877888 -0.00184666 -0.00171574 0.00212055 0.00209555 0.00141811 5.92104e-05 0.00196104 0.00161436 -0.00135139 -0.000600638 0.00141195 0.00339618 -0.000756677 -0.00052792 -0.00166799 0.00149047 -0.000767962 0.000156084 0.000448883 0.00271976 -1.54983e-05 0.00169574 7.19935e-05 0.000126207 0.00185688 -0.000206267 0.0016728 -0.000507161 0.00240571 0.00256478 0.00321453 0.00379978 0.00160946 -0.000644868 -0.000293876 0.000572938 0.000684251 -0.000641809 -0.00196017 0.00217952 0.00242568 -0.00150144 -9.03995e-05 0.000799274 0.000736841 0.000761902 0.000265743 -0.00159594 0.00180708 0.00231918 0.00362432 -0.000874163
internal_weight=2.18774e+06 1.49725e+06 690494 1.27624e+06 817934 221014 366694 323800 785303 458302 285822 101007 32631 249168 523626 111391 238768 272029 174431 261677 209134 106937 165092 153733 191693 80872 106613 132155 120007 112141 105831 85323 102803 69984 33858 93493 484893 75863 99611 102306 26153 7514 91160 112464 110428 119875 51771 90832 60812 34829 33185 6478 42831 52951 63925 74820 27514 63955 55317 395170 183522 94318 93375 67597 46096 72413 27994 87707 30456 48420 20508 64526 37149 171878 45747 50131 40995 22674 20912 29538 47306 73140 69459 23011 18321 38338 63352 25983 38878 7053 48259 37072 42735 55401 23377 21533 48384 211648 44419 24244 83466 38878 29767 29166 17888 8588 1106 32346 8307 34138 38733
internal_count=2187744 1497250 690494 1276236 817934 221014 366694 323800 785303 458302 285822 101007 32631 249168 523626 111391 238768 272029 174431 261677 209134 106937 165092 153733 191693 80872 106613 132155 120007 112141 105831 85323 102803 69984 33858 93493 484893 75863 99611 102306 26153 7514 91160 112464 110428 119875 51771 90832 60812 34829 33185 6478 42831 52951 63925 74820 27514 63955 55317 395170 183522 94318 93375 67597 46096 72413 27994 87707 30456 48420 20508 64526 37149 171878 45747 50131 40995 22674 20912 29538 47306 73140 69459 23011 18321 38338 63352 25983 38878 7053 48259 37072 42735 55401 23377 21533 48384 211648 44419 24244 83466 38878 29767 29166 17888 8588 1106 32346 8307 34138 38733
is_linear=0
shrinkage=0.0275008


Tree=9
num_leaves=112
num_cat=0
split_feature=2 5 2 1 2 2 5 5 4 5 1 1 2 2 1 3 4 1 1 5 1 2 4 3 4 3 3 3 1 1 4 2 4 2 4 1 2 3 4 2 1 3 2 4 0 1 1 4 3 1 1 3 3 1 4 1 0 4 5 3 0 4 3 3 4 1 4 3 1 3 4 4 4 1 1 3 2 2 3 4 1 0 4 4 1 1 0 3 0 4 3 4 0 0 3 3 2 0 2 1 3 4 1 4 4 1 1 1 0 2 1
